{"learner":{"attributes":{"scikit_learn":"{\"_estimator_type\": \"classifier\"}"},"feature_names":[],"feature_types":[],"gradient_booster":{"model":{"cats":{"enc":[],"feature_segments":[],"sorted_idx":[]},"gbtree_model_param":{"num_parallel_tree":"1","num_trees":"400"},"iteration_indptr":[0,4,8,12,16,20,24,28,32,36,40,44,48,52,56,60,64,68,72,76,80,84,88,92,96,100,104,108,112,116,120,124,128,132,136,140,144,148,152,156,160,164,168,172,176,180,184,188,192,196,200,204,208,212,216,220,224,228,232,236,240,244,248,252,256,260,264,268,272,276,280,284,288,292,296,300,304,308,312,316,320,324,328,332,336,340,344,348,352,356,360,364,368,372,376,380,384,388,392,396,400],"tree_info":[0,1,2,3,0,1,2,3,0,1,2,3,0,1,2,3,0,1,2,3,0,1,2,3,0,1,2,3,0,1,2,3,0,1,2,3,0,1,2,3,0,1,2,3,0,1,2,3,0,1,2,3,0,1,2,3,0,1,2,3,0,1,2,3,0,1,2,3,0,1,2,3,0,1,2,3,0,1,2,3,0,1,2,3,0,1,2,3,0,1,2,3,0,1,2,3,0,1,2,3,0,1,2,3,0,1,2,3,0,1,2,3,0,1,2,3,0,1,2,3,0,1,2,3,0,1,2,3,0,1,2,3,0,1,2,3,0,1,2,3,0,1,2,3,0,1,2,3,0,1,2,3,0,1,2,3,0,1,2,3,0,1,2,3,0,1,2,3,0,1,2,3,0,1,2,3,0,1,2,3,0,1,2,3,0,1,2,3,0,1,2,3,0,1,2,3,0,1,2,3,0,1,2,3,0,1,2,3,0,1,2,3,0,1,2,3,0,1,2,3,0,1,2,3,0,1,2,3,0,1,2,3,0,1,2,3,0,1,2,3,0,1,2,3,0,1,2,3,0,1,2,3,0,1,2,3,0,1,2,3,0,1,2,3,0,1,2,3,0,1,2,3,0,1,2,3,0,1,2,3,0,1,2,3,0,1,2,3,0,1,2,3,0,1,2,3,0,1,2,3,0,1,2,3,0,1,2,3,0,1,2,3,0,1,2,3,0,1,2,3,0,1,2,3,0,1,2,3,0,1,2,3,0,1,2,3,0,1,2,3,0,1,2,3,0,1,2,3,0,1,2,3,0,1,2,3,0,1,2,3,0,1,2,3,0,1,2,3,0,1,2,3,0,1,2,3,0,1,2,3,0,1,2,3,0,1,2,3,0,1,2,3,0,1,2,3,0,1,2,3],"trees":[{"base_weights":[4.967495E-7,1.5427744E0,-5.581857E-1,1.5775E-1,4.787681E-2,-7.082306E-2,1.35249E-1],"categories":[],"categories_nodes":[],"categories_segments":[],"categories_sizes":[],"default_left":[0,0,0,0,0,0,0],"id":0,"left_children":[1,3,5,-1,-1,-1,-1],"loss_changes":[8.559129E1,2.2040558E-1,2.1881687E1,0E0,0E0,0E0,0E0],"parents":[2147483647,0,0,1,1,2,2],"right_children":[2,4,6,-1,-1,-1,-1],"split_conditions":[2.951E-1,2.85E2,2.45E2,1.5775E-1,4.787681E-2,-7.082306E-2,1.35249E-1],"split_indices":[29,0,17,0,0,0,0],"split_type":[0,0,0,0,0,0,0],"sum_hessian":[9.739126E1,2.5406414E1,7.198484E1,2.4136095E1,1.2703208E0,6.7326996E1,4.6578426E0],"tree_param":{"num_deleted":"0","num_feature":"31","num_nodes":"7","size_leaf_vector":"1"}},{"base_weights":[-1.7775155E-7,-5.5727607E-1,8.4238946E-1,-6.351578E-2,4.6899796E-2,-5.3290486E-1,1.764404E0,1.0268555E-1,-5.17159E-2,-5.9996415E-2,1.49561195E-2,2.049427E-1,-4.4200838E-2],"categories":[],"categories_nodes":[],"categories_segments":[],"categories_sizes":[],"default_left":[0,0,0,0,0,0,0,0,0,0,0,0,0],"id":1,"left_children":[1,3,5,-1,7,9,11,-1,-1,-1,-1,-1,-1],"loss_changes":[3.9233234E1,2.396572E0,4.313421E1,0E0,4.2205095E0,7.360692E-1,1.3579109E1,0E0,0E0,0E0,0E0,0E0,0E0],"parents":[2147483647,0,0,1,1,2,2,4,4,5,5,6,6],"right_children":[2,4,6,-1,8,10,12,-1,-1,-1,-1,-1,-1],"split_conditions":[6.025E-1,5.07E-1,2.951E-1,-6.351578E-2,2.69E0,2.85E2,2.6E2,1.0268555E-1,-5.17159E-2,-5.9996415E-2,1.49561195E-2,2.049427E-1,-4.4200838E-2],"split_indices":[7,7,29,0,19,0,0,0,0,0,0,0,0],"split_type":[0,0,0,0,0,0,0,0,0,0,0,0,0],"sum_hessian":[8.157394E1,4.929903E1,3.2274902E1,4.362432E1,5.6747084E0,1.3122763E1,1.9152142E1,1.7733464E0,3.901362E0,1.2058755E1,1.0640078E0,1.7024124E1,2.1280155E0],"tree_param":{"num_deleted":"0","num_feature":"31","num_nodes":"13","size_leaf_vector":"1"}},{"base_weights":[2.1657551E-7,-4.5572332E-1,9.820326E-1,-5.578709E-1,1.1344042E-1,1.6860677E-1,-6.267149E-2,1.1195015E-1,-6.820833E-2,-5.9258204E-2,1.0235605E0,-5.9258204E-2,1.3082989E-1,6.865685E-3,1.3082989E-1],"categories":[],"categories_nodes":[],"categories_segments":[],"categories_sizes":[],"default_left":[0,0,0,0,0,0,0,0,0,0,0,0,0,0,0],"id":2,"left_children":[1,3,5,7,9,-1,-1,11,-1,-1,13,-1,-1,-1,-1],"loss_changes":[4.263259E1,3.8461475E0,3.5255646E1,4.6802006E0,7.5022755E0,0E0,0E0,8.795247E0,0E0,0E0,1.2845693E0,0E0,0E0,0E0,0E0],"parents":[2147483647,0,0,1,1,2,2,3,3,4,4,7,7,10,10],"right_children":[2,4,6,8,10,-1,-1,12,-1,-1,14,-1,-1,-1,-1],"split_conditions":[1E0,2.6E2,4.071E-1,3.5E1,1E0,1.6860677E-1,-6.267149E-2,6E0,-6.820833E-2,-5.9258204E-2,6.12E-2,-5.9258204E-2,1.3082989E-1,6.865685E-3,1.3082989E-1],"split_indices":[28,0,7,0,24,0,0,4,0,0,5,0,0,0,0],"split_type":[0,0,0,0,0,0,0,0,0,0,0,0,0,0,0],"sum_hessian":[9.326084E1,6.406615E1,2.9194698E1,5.433458E1,9.731566E0,2.0274097E1,8.920603E0,8.5151205E0,4.5819458E1,5.6767473E0,4.054819E0,5.6767473E0,2.8383737E0,1.2164458E0,2.8383737E0],"tree_param":{"num_deleted":"0","num_feature":"31","num_nodes":"15","size_leaf_vector":"1"}},{"base_weights":[-8.7959717E-7,-6.0021322E-2,1.8345857E0,2.4028916E0,-4.6890747E-2,5.7862546E-2,2.5265092E-1],"categories":[],"categories_nodes":[],"categories_segments":[],"categories_sizes":[],"default_left":[0,0,0,0,0,0,0],"id":3,"left_children":[1,-1,3,5,-1,-1,-1],"loss_changes":[7.780771E1,0E0,2.392965E1,1.7257385E0,0E0,0E0,0E0],"parents":[2147483647,0,0,2,2,3,3],"right_children":[2,-1,4,6,-1,-1,-1],"split_conditions":[8.352E-1,-6.0021322E-2,2.45E2,4.5E1,-4.6890747E-2,5.7862546E-2,2.5265092E-1],"split_indices":[29,0,0,0,0,0,0],"split_type":[0,0,0,0,0,0,0],"sum_hessian":[6.866095E1,5.2242027E1,1.6418922E1,1.31351385E1,3.2837846E0,1.1941035E0,1.1941034E1],"tree_param":{"num_deleted":"0","num_feature":"31","num_nodes":"7","size_leaf_vector":"1"}},{"base_weights":[1.0120051E-3,1.3396457E0,-5.365537E-1,1.3663283E-1,4.476213E-2,-6.869473E-2,1.2007381E-1],"categories":[],"categories_nodes":[],"categories_segments":[],"categories_sizes":[],"default_left":[0,0,0,0,0,0,0],"id":4,"left_children":[1,3,5,-1,-1,-1,-1],"loss_changes":[7.114261E1,6.2603E-2,1.925503E1,0E0,0E0,0E0,0E0],"parents":[2147483647,0,0,1,1,2,2],"right_children":[2,4,6,-1,-1,-1,-1],"split_conditions":[2.951E-1,2.85E2,2.45E2,1.3663283E-1,4.476213E-2,-6.869473E-2,1.2007381E-1],"split_indices":[29,0,17,0,0,0,0],"split_type":[0,0,0,0,0,0,0],"sum_hessian":[9.686474E1,2.7326029E1,6.9538704E1,2.601611E1,1.3099184E0,6.455491E1,4.9837937E0],"tree_param":{"num_deleted":"0","num_feature":"31","num_nodes":"7","size_leaf_vector":"1"}},{"base_weights":[-9.073615E-4,-5.429322E-1,7.453769E-1,-6.2252153E-2,4.8471298E-2,-5.172489E-1,1.4720608E0,9.2931025E-2,-5.0374635E-2,-5.8558475E-2,1.4040641E-2,1.6868034E-1,-4.3386396E-2],"categories":[],"categories_nodes":[],"categories_segments":[],"categories_sizes":[],"default_left":[0,0,0,0,0,0,0,0,0,0,0,0,0],"id":5,"left_children":[1,3,5,-1,7,9,11,-1,-1,-1,-1,-1,-1],"loss_changes":[3.370159E1,2.3018227E0,3.2924133E1,0E0,3.703906E0,6.909454E-1,9.944283E0,0E0,0E0,0E0,0E0,0E0,0E0],"parents":[2147483647,0,0,1,1,2,2,4,4,5,5,6,6],"right_children":[2,4,6,-1,8,10,12,-1,-1,-1,-1,-1,-1],"split_conditions":[6.025E-1,5.07E-1,2.951E-1,-6.2252153E-2,2.69E0,2.85E2,2.6E2,9.2931025E-2,-5.0374635E-2,-5.8558475E-2,1.4040641E-2,1.6868034E-1,-4.3386396E-2],"split_indices":[7,7,29,0,19,0,0,0,0,0,0,0,0],"split_type":[0,0,0,0,0,0,0,0,0,0,0,0,0],"sum_hessian":[8.131526E1,4.726168E1,3.4053585E1,4.1609398E1,5.652285E0,1.2544867E1,2.1508717E1,1.9149271E0,3.7373579E0,1.146332E1,1.0815468E0,1.9434032E1,2.0746846E0],"tree_param":{"num_deleted":"0","num_feature":"31","num_nodes":"13","size_leaf_vector":"1"}},{"base_weights":[2.7753852E-4,-4.3646532E-1,8.676359E-1,-5.3818417E-1,1.09465845E-1,1.4392428E-1,-6.089745E-2,1.1020966E-1,-6.635638E-2,-5.7527967E-2,9.2675114E-1,-5.740216E-2,1.1696128E-1,1.17984764E-1,5.5488762E-3],"categories":[],"categories_nodes":[],"categories_segments":[],"categories_sizes":[],"default_left":[0,0,0,0,0,0,0,0,0,0,0,0,0,0,0],"id":6,"left_children":[1,3,5,7,9,-1,-1,11,-1,-1,13,-1,-1,-1,-1],"loss_changes":[3.592143E1,3.5612545E0,2.768084E1,4.4088497E0,6.541674E0,0E0,0E0,7.557317E0,0E0,0E0,1.0983105E0,0E0,0E0,0E0,0E0],"parents":[2147483647,0,0,1,1,2,2,3,3,4,4,7,7,10,10],"right_children":[2,4,6,8,10,-1,-1,12,-1,-1,14,-1,-1,-1,-1],"split_conditions":[1E0,2.6E2,4.071E-1,3.5E1,1E0,1.4392428E-1,-6.089745E-2,6E0,-6.635638E-2,-5.7527967E-2,2.92E0,-5.740216E-2,1.1696128E-1,1.17984764E-1,5.5488762E-3],"split_indices":[28,0,7,0,24,0,0,4,0,0,19,0,0,0,0],"split_type":[0,0,0,0,0,0,0,0,0,0,0,0,0,0,0],"sum_hessian":[9.2826706E1,6.20695E1,3.0757206E1,5.233293E1,9.736571E0,2.2191872E1,8.565333E0,8.4994545E0,4.3833477E1,5.458984E0,4.2775874E0,5.4425006E0,3.0569544E0,3.0402353E0,1.2373519E0],"tree_param":{"num_deleted":"0","num_feature":"31","num_nodes":"15","size_leaf_vector":"1"}},{"base_weights":[-7.255371E-4,-5.9130557E-2,1.5086846E0,1.9088252E0,-4.592928E-2,5.3696055E-2,1.9863975E-1],"categories":[],"categories_nodes":[],"categories_segments":[],"categories_sizes":[],"default_left":[0,0,0,0,0,0,0],"id":7,"left_children":[1,-1,3,5,-1,-1,-1],"loss_changes":[6.2803078E1,0E0,1.647913E1,7.062721E-1,0E0,0E0,0E0],"parents":[2147483647,0,0,2,2,3,3],"right_children":[2,-1,4,6,-1,-1,-1],"split_conditions":[8.352E-1,-5.9130557E-2,2.45E2,4.5E1,-4.592928E-2,5.3696055E-2,1.9863975E-1],"split_indices":[29,0,0,0,0,0,0],"split_type":[0,0,0,0,0,0,0],"sum_hessian":[6.8451515E1,4.9638096E1,1.8813417E1,1.5659495E1,3.153922E0,1.2620604E0,1.4397435E1],"tree_param":{"num_deleted":"0","num_feature":"31","num_nodes":"7","size_leaf_vector":"1"}},{"base_weights":[1.8273795E-3,1.1895521E-1,-5.172158E-1,-6.6779666E-2,1.08179644E-1],"categories":[],"categories_nodes":[],"categories_segments":[],"categories_sizes":[],"default_left":[0,0,0,0,0],"id":8,"left_children":[1,-1,3,-1,-1],"loss_changes":[6.012994E1,0E0,1.70661E1,0E0,0E0],"parents":[2147483647,0,0,2,2],"right_children":[2,-1,4,-1,-1],"split_conditions":[2.951E-1,1.1895521E-1,2.45E2,-6.6779666E-2,1.08179644E-1],"split_indices":[29,0,17,0,0],"split_type":[0,0,0,0,0],"sum_hessian":[9.553945E1,2.866154E1,6.6877914E1,6.1654236E1,5.223681E0],"tree_param":{"num_deleted":"0","num_feature":"31","num_nodes":"5","size_leaf_vector":"1"}},{"base_weights":[-1.6216348E-3,-6.1063975E-2,5.8847475E-1,-5.28541E-1,1.2485809E0,-5.851112E-2,1.322069E-2,1.4594467E-1,-4.6244346E-2],"categories":[],"categories_nodes":[],"categories_segments":[],"categories_sizes":[],"default_left":[0,0,0,0,0,0,0,0,0],"id":9,"left_children":[1,-1,3,5,7,-1,-1,-1,-1],"loss_changes":[2.9616566E1,0E0,3.1522972E1,6.8476343E-1,1.0274483E1,0E0,0E0,0E0,0E0],"parents":[2147483647,0,0,2,2,3,3,4,4],"right_children":[2,-1,4,6,8,-1,-1,-1,-1],"split_conditions":[5.07E-1,-6.1063975E-2,2.951E-1,2.85E2,2.6E2,-5.851112E-2,1.322069E-2,1.4594467E-1,-4.6244346E-2],"split_indices":[7,0,29,0,0,0,0,0,0],"split_type":[0,0,0,0,0,0,0,0,0],"sum_hessian":[8.04104E1,3.955364E1,4.0856762E1,1.5250146E1,2.5606617E1,1.415291E1,1.0972353E0,2.2928015E1,2.678602E0],"tree_param":{"num_deleted":"0","num_feature":"31","num_nodes":"9","size_leaf_vector":"1"}},{"base_weights":[3.799452E-4,-4.1896594E-1,7.799002E-1,-5.2026767E-1,1.055665E-1,1.2619065E-1,-5.9229475E-2,1.08564414E-1,-6.467047E-2,-5.590124E-2,8.4608895E-1,-5.5658437E-2,1.05846E-1,4.3797507E-3,1.0741953E-1],"categories":[],"categories_nodes":[],"categories_segments":[],"categories_sizes":[],"default_left":[0,0,0,0,0,0,0,0,0,0,0,0,0,0,0],"id":10,"left_children":[1,3,5,7,9,-1,-1,11,-1,-1,13,-1,-1,-1,-1],"loss_changes":[3.0614326E1,3.2906752E0,2.2414125E1,4.1415825E0,5.7330627E0,0E0,0E0,6.5463796E0,0E0,0E0,9.509208E-1,0E0,0E0,0E0,0E0],"parents":[2147483647,0,0,1,1,2,2,3,3,4,4,7,7,10,10],"right_children":[2,4,6,8,10,-1,-1,12,-1,-1,14,-1,-1,-1,-1],"split_conditions":[1E0,2.6E2,4.071E-1,3.5E1,1E0,1.2619065E-1,-5.9229475E-2,6E0,-6.467047E-2,-5.590124E-2,4.5E1,-5.5658437E-2,1.05846E-1,4.3797507E-3,1.0741953E-1],"split_indices":[28,0,7,0,24,0,0,4,0,0,17,0,0,0,0],"split_type":[0,0,0,0,0,0,0,0,0,0,0,0,0,0,0],"sum_hessian":[9.165411E1,5.989559E1,3.1758526E1,5.02073E1,9.688291E0,2.3562263E1,8.196262E0,8.428698E0,4.1778603E1,5.235143E0,4.4531474E0,5.2009063E0,3.2277918E0,1.2497069E0,3.2034407E0],"tree_param":{"num_deleted":"0","num_feature":"31","num_nodes":"15","size_leaf_vector":"1"}},{"base_weights":[-1.1586407E-3,-5.827976E-2,1.2863241E0,1.5912837E0,-4.495267E-2,4.993292E-2,1.6459046E-1],"categories":[],"categories_nodes":[],"categories_segments":[],"categories_sizes":[],"default_left":[0,0,0,0,0,0,0],"id":11,"left_children":[1,-1,3,5,-1,-1,-1],"loss_changes":[5.2199425E1,0E0,1.2198101E1,2.917366E-1,0E0,0E0,0E0],"parents":[2147483647,0,0,2,2,3,3],"right_children":[2,-1,4,6,-1,-1,-1],"split_conditions":[8.352E-1,-5.827976E-2,2.45E2,4.5E1,-4.495267E-2,4.993292E-2,1.6459046E-1],"split_indices":[29,0,0,0,0,0,0],"split_type":[0,0,0,0,0,0,0],"sum_hessian":[6.770502E1,4.701338E1,2.0691637E1,1.7670511E1,3.0211267E0,1.3249288E0,1.6345581E1],"tree_param":{"num_deleted":"0","num_feature":"31","num_nodes":"7","size_leaf_vector":"1"}},{"base_weights":[2.3300555E-3,1.0719156E0,-4.9962357E-1,1.0933866E-1,3.6600124E-2,-6.503368E-2,9.865015E-2],"categories":[],"categories_nodes":[],"categories_segments":[],"categories_sizes":[],"default_left":[0,0,0,0,0,0,0],"id":12,"left_children":[1,3,5,-1,-1,-1,-1],"loss_changes":[5.1288746E1,6.2282562E-2,1.5204905E1,0E0,0E0,0E0,0E0],"parents":[2147483647,0,0,1,1,2,2],"right_children":[2,4,6,-1,-1,-1,-1],"split_conditions":[2.951E-1,2.85E2,2.45E2,1.0933866E-1,3.6600124E-2,-6.503368E-2,9.865015E-2],"split_indices":[29,0,17,0,0,0,0],"split_type":[0,0,0,0,0,0,0],"sum_hessian":[9.353317E1,2.9512056E1,6.402112E1,2.8108225E1,1.403832E0,5.8636932E1,5.3841853E0],"tree_param":{"num_deleted":"0","num_feature":"31","num_nodes":"7","size_leaf_vector":"1"}},{"base_weights":[-2.4088619E-3,-5.9950646E-2,5.389518E-1,-5.1384246E-1,1.1017698E0,-5.7255566E-2,1.3587083E-2,1.2782289E-1,-4.5280166E-2],"categories":[],"categories_nodes":[],"categories_segments":[],"categories_sizes":[],"default_left":[0,0,0,0,0,0,0,0,0],"id":13,"left_children":[1,-1,3,5,7,-1,-1,-1,-1],"loss_changes":[2.6159058E1,0E0,2.5717045E1,6.6787434E-1,8.253616E0,0E0,0E0,0E0,0E0],"parents":[2147483647,0,0,2,2,3,3,4,4],"right_children":[2,-1,4,6,8,-1,-1,-1,-1],"split_conditions":[5.07E-1,-5.9950646E-2,2.951E-1,2.85E2,2.6E2,-5.7255566E-2,1.3587083E-2,1.2782289E-1,-4.5280166E-2],"split_indices":[7,0,29,0,0,0,0,0,0],"split_type":[0,0,0,0,0,0,0,0,0],"sum_hessian":[7.892681E1,3.7480274E1,4.1446537E1,1.4468715E1,2.6977825E1,1.3378487E1,1.0902283E0,2.4387379E1,2.5904453E0],"tree_param":{"num_deleted":"0","num_feature":"31","num_nodes":"9","size_leaf_vector":"1"}},{"base_weights":[6.077387E-4,-4.0286332E-1,7.111697E-1,-5.0392574E-1,1.036242E-1,1.1288931E-1,-5.7619777E-2,1.0698081E-1,-6.313182E-2,-5.422758E-2,7.7765703E-1,-5.4021217E-2,9.679203E-2,4.346182E-3,9.7822934E-2],"categories":[],"categories_nodes":[],"categories_segments":[],"categories_sizes":[],"default_left":[0,0,0,0,0,0,0,0,0,0,0,0,0,0,0],"id":14,"left_children":[1,3,5,7,9,-1,-1,11,-1,-1,13,-1,-1,-1,-1],"loss_changes":[2.6323647E1,3.0500088E0,1.853317E1,3.8805008E0,5.0240846E0,0E0,0E0,5.70978E0,0E0,0E0,7.797682E-1,0E0,0E0,0E0,0E0],"parents":[2147483647,0,0,1,1,2,2,3,3,4,4,7,7,10,10],"right_children":[2,4,6,8,10,-1,-1,12,-1,-1,14,-1,-1,-1,-1],"split_conditions":[1E0,2.6E2,4.071E-1,3.5E1,1E0,1.1288931E-1,-5.7619777E-2,6E0,-6.313182E-2,-5.422758E-2,4.5E1,-5.4021217E-2,9.679203E-2,4.346182E-3,9.7822934E-2],"split_indices":[28,0,7,0,24,0,0,4,0,0,17,0,0,0,0],"split_type":[0,0,0,0,0,0,0,0,0,0,0,0,0,0,0],"sum_hessian":[8.981946E1,5.7565613E1,3.225385E1,4.799412E1,9.571489E0,2.444505E1,7.8087997E0,8.308965E0,3.9685158E1,4.987568E0,4.583921E0,4.9559593E0,3.3530054E0,1.2446324E0,3.3392885E0],"tree_param":{"num_deleted":"0","num_feature":"31","num_nodes":"15","size_leaf_vector":"1"}},{"base_weights":[-1.2291151E-3,-5.7462364E-2,1.1251919E0,1.3704684E0,-4.3967124E-2,1.7416915E-2,1.424661E-1],"categories":[],"categories_nodes":[],"categories_segments":[],"categories_sizes":[],"default_left":[0,0,0,0,0,0,0],"id":15,"left_children":[1,-1,3,5,-1,-1,-1],"loss_changes":[4.4225174E1,0E0,9.468115E0,1.0621605E0,0E0,0E0,0E0],"parents":[2147483647,0,0,2,2,3,3],"right_children":[2,-1,4,6,-1,-1,-1],"split_conditions":[8.352E-1,-5.7462364E-2,2.45E2,4E1,-4.3967124E-2,1.7416915E-2,1.424661E-1],"split_indices":[29,0,0,0,0,0,0],"split_type":[0,0,0,0,0,0,0],"sum_hessian":[6.6471306E1,4.437333E1,2.2097977E1,1.9211061E1,2.8869143E0,1.0151669E0,1.8195894E1],"tree_param":{"num_deleted":"0","num_feature":"31","num_nodes":"7","size_leaf_vector":"1"}},{"base_weights":[3.0570377E-3,9.805796E-1,-4.8371008E-1,1.0062609E-1,4.0038053E-2,-6.345164E-2,9.087402E-2],"categories":[],"categories_nodes":[],"categories_segments":[],"categories_sizes":[],"default_left":[0,0,0,0,0,0,0],"id":16,"left_children":[1,3,5,-1,-1,-1,-1],"loss_changes":[4.421464E1,5.7359695E-2,1.3603677E1,0E0,0E0,0E0,0E0],"parents":[2147483647,0,0,1,1,2,2],"right_children":[2,4,6,-1,-1,-1,-1],"split_conditions":[2.951E-1,8.828E-1,2.45E2,1.0062609E-1,4.0038053E-2,-6.345164E-2,9.087402E-2],"split_indices":[29,7,17,0,0,0,0],"split_type":[0,0,0,0,0,0,0],"sum_hessian":[9.092507E1,2.9888569E1,6.1036507E1,2.791848E1,1.9700878E0,5.556317E1,5.4733334E0],"tree_param":{"num_deleted":"0","num_feature":"31","num_nodes":"7","size_leaf_vector":"1"}},{"base_weights":[-3.1421722E-3,-5.890218E-2,4.981493E-1,-5.000609E-1,9.898186E-1,-5.634829E-2,1.14196455E-2,1.14263885E-1,-4.431348E-2],"categories":[],"categories_nodes":[],"categories_segments":[],"categories_sizes":[],"default_left":[0,0,0,0,0,0,0,0,0],"id":17,"left_children":[1,-1,3,5,7,-1,-1,-1,-1],"loss_changes":[2.3184975E1,0E0,2.1375818E1,6.372018E-1,6.822027E0,0E0,0E0,0E0,0E0],"parents":[2147483647,0,0,2,2,3,3,4,4],"right_children":[2,-1,4,6,8,-1,-1,-1,-1],"split_conditions":[5.07E-1,-5.890218E-2,2.951E-1,8.828E-1,2.6E2,-5.634829E-2,1.14196455E-2,1.14263885E-1,-4.431348E-2],"split_indices":[7,0,29,7,0,0,0,0,0],"split_type":[0,0,0,0,0,0,0,0,0],"sum_hessian":[7.6942894E1,3.539745E1,4.154544E1,1.3704616E1,2.7840826E1,1.2496965E1,1.2076501E0,2.5340893E1,2.4999328E0],"tree_param":{"num_deleted":"0","num_feature":"31","num_nodes":"9","size_leaf_vector":"1"}},{"base_weights":[7.266066E-4,-3.8817695E-1,6.558139E-1,-4.8883724E-1,9.979125E-2,1.02588356E-1,-5.6102682E-2,1.05266064E-1,-6.1709445E-2,-5.2785374E-2,7.198889E-1,-5.2460458E-2,8.91633E-2,9.055537E-2,3.3808888E-3],"categories":[],"categories_nodes":[],"categories_segments":[],"categories_sizes":[],"default_left":[0,0,0,0,0,0,0,0,0,0,0,0,0,0,0],"id":18,"left_children":[1,3,5,7,9,-1,-1,11,-1,-1,13,-1,-1,-1,-1],"loss_changes":[2.278616E1,2.8054943E0,1.5578857E1,3.6230335E0,4.4385777E0,0E0,0E0,4.997423E0,0E0,0E0,6.91452E-1,0E0,0E0,0E0,0E0],"parents":[2147483647,0,0,1,1,2,2,3,3,4,4,7,7,10,10],"right_children":[2,4,6,8,10,-1,-1,12,-1,-1,14,-1,-1,-1,-1],"split_conditions":[1E0,2.6E2,4.071E-1,3.5E1,1E0,1.02588356E-1,-5.6102682E-2,6E0,-6.1709445E-2,-5.2785374E-2,2.92E0,-5.2460458E-2,8.91633E-2,9.055537E-2,3.3808888E-3],"split_indices":[28,0,7,0,24,0,0,4,0,0,19,0,0,0,0],"split_type":[0,0,0,0,0,0,0,0,0,0,0,0,0,0,0],"sum_hessian":[8.74404E1,5.5123093E1,3.2317307E1,4.5695114E1,9.4279785E0,2.49012E1,7.4161067E0,8.145127E0,3.7549988E1,4.759404E0,4.6685743E0,4.7074175E0,3.4377103E0,3.422495E0,1.2460797E0],"tree_param":{"num_deleted":"0","num_feature":"31","num_nodes":"15","size_leaf_vector":"1"}},{"base_weights":[-1.5243073E-3,-5.6688722E-2,1.0024903E0,1.2074661E0,-4.297686E-2,1.6532687E-2,1.2522249E-1],"categories":[],"categories_nodes":[],"categories_segments":[],"categories_sizes":[],"default_left":[0,0,0,0,0,0,0],"id":19,"left_children":[1,-1,3,5,-1,-1,-1],"loss_changes":[3.7945812E1,0E0,7.589115E0,7.879181E-1,0E0,0E0,0E0],"parents":[2147483647,0,0,2,2,3,3],"right_children":[2,-1,4,6,-1,-1,-1],"split_conditions":[8.352E-1,-5.6688722E-2,2.45E2,4E1,-4.297686E-2,1.6532687E-2,1.2522249E-1],"split_indices":[29,0,0,0,0,0,0],"split_type":[0,0,0,0,0,0,0],"sum_hessian":[6.484808E1,4.176532E1,2.3082766E1,2.0330187E1,2.7525787E0,1.0304909E0,1.9299696E1],"tree_param":{"num_deleted":"0","num_feature":"31","num_nodes":"7","size_leaf_vector":"1"}},{"base_weights":[3.7865548E-3,9.067582E-1,-4.6930665E-1,9.265244E-2,3.017125E-2,-6.2019106E-2,8.4424466E-2],"categories":[],"categories_nodes":[],"categories_segments":[],"categories_sizes":[],"default_left":[0,0,0,0,0,0,0],"id":20,"left_children":[1,3,5,-1,-1,-1,-1],"loss_changes":[3.839E1,8.9941025E-2,1.2212196E1,0E0,0E0,0E0,0E0],"parents":[2147483647,0,0,1,1,2,2],"right_children":[2,4,6,-1,-1,-1,-1],"split_conditions":[2.951E-1,2.85E2,2.45E2,9.265244E-2,3.017125E-2,-6.2019106E-2,8.4424466E-2],"split_indices":[29,0,17,0,0,0,0],"split_type":[0,0,0,0,0,0,0],"sum_hessian":[8.787024E1,2.9894773E1,5.7975464E1,2.8434519E1,1.4602544E0,5.247558E1,5.4998865E0],"tree_param":{"num_deleted":"0","num_feature":"31","num_nodes":"7","size_leaf_vector":"1"}},{"base_weights":[-3.7877702E-3,-5.792081E-2,4.6417964E-1,-4.8632973E-1,9.019264E-1,-5.5004388E-2,1.4411821E-2,1.0378156E-1,-4.334329E-2],"categories":[],"categories_nodes":[],"categories_segments":[],"categories_sizes":[],"default_left":[0,0,0,0,0,0,0,0,0],"id":21,"left_children":[1,-1,3,5,7,-1,-1,-1,-1],"loss_changes":[2.0614443E1,0E0,1.800718E1,6.401715E-1,5.759369E0,0E0,0E0,0E0,0E0],"parents":[2147483647,0,0,2,2,3,3,4,4],"right_children":[2,-1,4,6,8,-1,-1,-1,-1],"split_conditions":[5.07E-1,-5.792081E-2,2.951E-1,2.85E2,2.6E2,-5.5004388E-2,1.4411821E-2,1.0378156E-1,-4.334329E-2],"split_indices":[7,0,29,0,0,0,0,0,0],"split_type":[0,0,0,0,0,0,0,0,0],"sum_hessian":[7.455607E1,3.3332355E1,4.1223713E1,1.2963719E1,2.8259995E1,1.1889666E1,1.0740546E0,2.5852049E1,2.4079447E0],"tree_param":{"num_deleted":"0","num_feature":"31","num_nodes":"9","size_leaf_vector":"1"}},{"base_weights":[7.475371E-4,-3.7473655E-1,6.1043894E-1,-4.7503072E-1,9.620499E-2,9.441026E-2,-5.4668844E-2,1.03335194E-1,-6.0407724E-2,-5.1379677E-2,6.6898E-1,-5.1001705E-2,8.2776956E-2,2.42164E-3,8.430766E-2],"categories":[],"categories_nodes":[],"categories_segments":[],"categories_sizes":[],"default_left":[0,0,0,0,0,0,0,0,0,0,0,0,0,0,0],"id":22,"left_children":[1,3,5,7,9,-1,-1,11,-1,-1,13,-1,-1,-1,-1],"loss_changes":[1.9830126E1,2.577755E0,1.3262479E1,3.3736E0,3.9228303E0,0E0,0E0,4.3975754E0,0E0,0E0,6.213789E-1,0E0,0E0,0E0,0E0],"parents":[2147483647,0,0,1,1,2,2,3,3,4,4,7,7,10,10],"right_children":[2,4,6,8,10,-1,-1,12,-1,-1,14,-1,-1,-1,-1],"split_conditions":[1E0,2.6E2,4.071E-1,3.5E1,1E0,9.441026E-2,-5.4668844E-2,6E0,-6.0407724E-2,-5.1379677E-2,6.12E-2,-5.1001705E-2,8.2776956E-2,2.42164E-3,8.430766E-2],"split_indices":[28,0,7,0,24,0,0,4,0,0,5,0,0,0,0],"split_type":[0,0,0,0,0,0,0,0,0,0,0,0,0,0,0],"sum_hessian":[8.46219E1,5.260809E1,3.2013813E1,4.3364315E1,9.243774E0,2.4991486E1,7.022327E0,7.9468822E0,3.5417435E1,4.5262823E0,4.7174926E0,4.4636507E0,3.4832315E0,1.2451609E0,3.4723315E0],"tree_param":{"num_deleted":"0","num_feature":"31","num_nodes":"15","size_leaf_vector":"1"}},{"base_weights":[-1.7896167E-3,-5.5956166E-2,9.070296E-1,1.0836253E0,-4.198562E-2,1.5727771E-2,1.1221466E-1],"categories":[],"categories_nodes":[],"categories_segments":[],"categories_sizes":[],"default_left":[0,0,0,0,0,0,0],"id":23,"left_children":[1,-1,3,5,-1,-1,-1],"loss_changes":[3.2891293E1,0E0,6.237543E0,6.106491E-1,0E0,0E0,0E0],"parents":[2147483647,0,0,2,2,3,3],"right_children":[2,-1,4,6,-1,-1,-1],"split_conditions":[8.352E-1,-5.5956166E-2,2.45E2,4E1,-4.198562E-2,1.5727771E-2,1.1221466E-1],"split_indices":[29,0,0,0,0,0,0],"split_type":[0,0,0,0,0,0,0],"sum_hessian":[6.288412E1,3.9206257E1,2.3677862E1,2.105851E1,2.6193535E0,1.0436629E0,2.0014847E1],"tree_param":{"num_deleted":"0","num_feature":"31","num_nodes":"7","size_leaf_vector":"1"}},{"base_weights":[4.432361E-3,8.463793E-1,-4.562181E-1,8.6509675E-2,2.8375331E-2,-6.071933E-2,7.8999944E-2],"categories":[],"categories_nodes":[],"categories_segments":[],"categories_sizes":[],"default_left":[0,0,0,0,0,0,0],"id":24,"left_children":[1,3,5,-1,-1,-1,-1],"loss_changes":[3.352634E1,7.643509E-2,1.0993307E1,0E0,0E0,0E0,0E0],"parents":[2147483647,0,0,1,1,2,2],"right_children":[2,4,6,-1,-1,-1,-1],"split_conditions":[2.951E-1,2.85E2,2.45E2,8.6509675E-2,2.8375331E-2,-6.071933E-2,7.8999944E-2],"split_indices":[29,0,17,0,0,0,0],"split_type":[0,0,0,0,0,0,0],"sum_hessian":[8.4447426E1,2.956786E1,5.4879566E1,2.809557E1,1.4722906E0,4.9406857E1,5.472709E0],"tree_param":{"num_deleted":"0","num_feature":"31","num_nodes":"7","size_leaf_vector":"1"}},{"base_weights":[-4.3796874E-3,-5.70032E-2,4.3572533E-1,-4.7327986E-1,8.312985E-1,-5.423301E-2,1.298239E-2,9.546991E-2,-4.237819E-2],"categories":[],"categories_nodes":[],"categories_segments":[],"categories_sizes":[],"default_left":[0,0,0,0,0,0,0,0,0],"id":25,"left_children":[1,-1,3,5,7,-1,-1,-1,-1],"loss_changes":[1.8379684E1,0E0,1.5326214E1,6.213424E-1,4.9423637E0,0E0,0E0,0E0,0E0],"parents":[2147483647,0,0,2,2,3,3,4,4],"right_children":[2,-1,4,6,8,-1,-1,-1,-1],"split_conditions":[5.07E-1,-5.70032E-2,2.951E-1,8.828E-1,2.6E2,-5.423301E-2,1.298239E-2,9.546991E-2,-4.237819E-2],"split_indices":[7,0,29,7,0,0,0,0,0],"split_type":[0,0,0,0,0,0,0,0,0],"sum_hessian":[7.183216E1,3.1303543E1,4.0528618E1,1.2229488E1,2.8299131E1,1.1063572E1,1.165916E0,2.598372E1,2.3154092E0],"tree_param":{"num_deleted":"0","num_feature":"31","num_nodes":"9","size_leaf_vector":"1"}},{"base_weights":[7.7224645E-4,-3.623176E-1,5.726899E-1,-4.6227336E-1,9.261013E-2,8.778664E-2,-5.330924E-2,1.0203892E-1,-5.9212565E-2,-5.0081242E-2,6.2593865E-1,-4.9587276E-2,7.736493E-2,7.862471E-2,2.330338E-3],"categories":[],"categories_nodes":[],"categories_segments":[],"categories_sizes":[],"default_left":[0,0,0,0,0,0,0,0,0,0,0,0,0,0,0],"id":26,"left_children":[1,3,5,7,9,-1,-1,11,-1,-1,13,-1,-1,-1,-1],"loss_changes":[1.7329288E1,2.3640137E0,1.1403665E1,3.1393557E0,3.4873767E0,0E0,0E0,3.8824308E0,0E0,0E0,5.3486514E-1,0E0,0E0,0E0,0E0],"parents":[2147483647,0,0,1,1,2,2,3,3,4,4,7,7,10,10],"right_children":[2,4,6,8,10,-1,-1,12,-1,-1,14,-1,-1,-1,-1],"split_conditions":[1E0,2.6E2,4.071E-1,3.5E1,1E0,8.778664E-2,-5.330924E-2,6E0,-5.9212565E-2,-5.0081242E-2,2.92E0,-4.9587276E-2,7.736493E-2,7.862471E-2,2.330338E-3],"split_indices":[28,0,7,0,24,0,0,4,0,0,19,0,0,0,0],"split_type":[0,0,0,0,0,0,0,0,0,0,0,0,0,0,0],"sum_hessian":[8.145209E1,5.004611E1,3.140598E1,4.1017647E1,9.02846E0,2.4774708E1,6.6312714E0,7.7129374E0,3.330471E1,4.3023267E0,4.726133E0,4.218774E0,3.4941635E0,3.4924235E0,1.2337095E0],"tree_param":{"num_deleted":"0","num_feature":"31","num_nodes":"15","size_leaf_vector":"1"}},{"base_weights":[-2.0023414E-3,-5.5262297E-2,8.308593E-1,9.8668694E-1,-4.099578E-2,1.4990811E-2,1.0209443E-1],"categories":[],"categories_nodes":[],"categories_segments":[],"categories_sizes":[],"default_left":[0,0,0,0,0,0,0],"id":27,"left_children":[1,-1,3,5,-1,-1,-1],"loss_changes":[2.872711E1,0E0,5.2252502E0,4.9032784E-1,0E0,0E0,0E0],"parents":[2147483647,0,0,2,2,3,3],"right_children":[2,-1,4,6,-1,-1,-1],"split_conditions":[8.352E-1,-5.5262297E-2,2.45E2,4E1,-4.099578E-2,1.4990811E-2,1.0209443E-1],"split_indices":[29,0,0,0,0,0,0],"split_type":[0,0,0,0,0,0,0],"sum_hessian":[6.064092E1,3.6708626E1,2.3932293E1,2.1444056E1,2.4882376E0,1.0548133E0,2.0389242E1],"tree_param":{"num_deleted":"0","num_feature":"31","num_nodes":"7","size_leaf_vector":"1"}},{"base_weights":[5.0960616E-3,7.960119E-1,-4.4428E-1,8.1942685E-2,3.0733114E-2,-5.9537943E-2,7.437952E-2],"categories":[],"categories_nodes":[],"categories_segments":[],"categories_sizes":[],"default_left":[0,0,0,0,0,0,0],"id":28,"left_children":[1,3,5,-1,-1,-1,-1],"loss_changes":[2.9416597E1,9.1264725E-2,9.918843E0,0E0,0E0,0E0,0E0],"parents":[2147483647,0,0,1,1,2,2],"right_children":[2,4,6,-1,-1,-1,-1],"split_conditions":[2.951E-1,8.828E-1,2.45E2,8.1942685E-2,3.0733114E-2,-5.9537943E-2,7.437952E-2],"split_indices":[29,7,17,0,0,0,0],"split_type":[0,0,0,0,0,0,0],"sum_hessian":[8.077101E1,2.898505E1,5.1785965E1,2.701388E1,1.9711702E0,4.6385525E1,5.400441E0],"tree_param":{"num_deleted":"0","num_feature":"31","num_nodes":"7","size_leaf_vector":"1"}},{"base_weights":[-4.9431273E-3,-5.6144502E-2,4.1140953E-1,-4.6027595E-1,7.7345806E-1,-5.3237177E-2,1.3381361E-2,8.8744625E-2,-4.1421596E-2],"categories":[],"categories_nodes":[],"categories_segments":[],"categories_sizes":[],"default_left":[0,0,0,0,0,0,0,0,0],"id":29,"left_children":[1,-1,3,5,7,-1,-1,-1,-1],"loss_changes":[1.6419838E1,0E0,1.3151575E1,6.077032E-1,4.2962856E0,0E0,0E0,0E0,0E0],"parents":[2147483647,0,0,2,2,3,3,4,4],"right_children":[2,-1,4,6,8,-1,-1,-1,-1],"split_conditions":[5.07E-1,-5.6144502E-2,2.951E-1,8.828E-1,2.6E2,-5.3237177E-2,1.3381361E-2,8.8744625E-2,-4.1421596E-2],"split_indices":[7,0,29,7,0,0,0,0,0],"split_type":[0,0,0,0,0,0,0,0,0],"sum_hessian":[6.886958E1,2.9324982E1,3.95446E1,1.1525043E1,2.8019558E1,1.0370425E1,1.1546177E0,2.57965E1,2.2230585E0],"tree_param":{"num_deleted":"0","num_feature":"31","num_nodes":"9","size_leaf_vector":"1"}},{"base_weights":[7.6405366E-4,-3.5084108E-1,5.4088104E-1,-4.5045313E-1,8.8747256E-2,8.233291E-2,-5.2015156E-2,1.0118762E-1,-5.8113135E-2,-4.889011E-2,5.8907914E-1,-4.8219047E-2,7.272687E-2,1.6412959E-3,7.412552E-2],"categories":[],"categories_nodes":[],"categories_segments":[],"categories_sizes":[],"default_left":[0,0,0,0,0,0,0,0,0,0,0,0,0,0,0],"id":30,"left_children":[1,3,5,7,9,-1,-1,11,-1,-1,13,-1,-1,-1,-1],"loss_changes":[1.5197054E1,2.1624613E0,9.884131E0,2.9193363E0,3.117482E0,0E0,0E0,3.4375315E0,0E0,0E0,4.845357E-1,0E0,0E0,0E0,0E0],"parents":[2147483647,0,0,1,1,2,2,3,3,4,4,7,7,10,10],"right_children":[2,4,6,8,10,-1,-1,12,-1,-1,14,-1,-1,-1,-1],"split_conditions":[1E0,2.6E2,4.071E-1,3.5E1,1E0,8.233291E-2,-5.2015156E-2,6E0,-5.8113135E-2,-4.889011E-2,4.5E1,-4.8219047E-2,7.272687E-2,1.6412959E-3,7.412552E-2],"split_indices":[28,0,7,0,24,0,0,4,0,0,17,0,0,0,0],"split_type":[0,0,0,0,0,0,0,0,0,0,0,0,0,0,0],"sum_hessian":[7.802405E1,4.7471504E1,3.0552544E1,3.8681454E1,8.7900505E0,2.4306229E1,6.2463155E0,7.45152E0,3.1229933E1,4.090403E0,4.699648E0,3.976278E0,3.4752417E0,1.219248E0,3.4803996E0],"tree_param":{"num_deleted":"0","num_feature":"31","num_nodes":"15","size_leaf_vector":"1"}},{"base_weights":[-2.2254225E-3,-5.4606516E-2,7.6881725E-1,9.089929E-1,-4.0009234E-2,1.4312129E-2,9.402825E-2],"categories":[],"categories_nodes":[],"categories_segments":[],"categories_sizes":[],"default_left":[0,0,0,0,0,0,0],"id":31,"left_children":[1,-1,3,5,-1,-1,-1],"loss_changes":[2.5237965E1,0E0,4.442774E0,4.054451E-1,0E0,0E0,0E0],"parents":[2147483647,0,0,2,2,3,3],"right_children":[2,-1,4,6,-1,-1,-1],"split_conditions":[8.352E-1,-5.4606516E-2,2.45E2,4E1,-4.0009234E-2,1.4312129E-2,9.402825E-2],"split_indices":[29,0,0,0,0,0,0],"split_type":[0,0,0,0,0,0,0],"sum_hessian":[5.8186127E1,3.4291252E1,2.3894875E1,2.153478E1,2.3600929E0,1.0640558E0,2.0470724E1],"tree_param":{"num_deleted":"0","num_feature":"31","num_nodes":"7","size_leaf_vector":"1"}},{"base_weights":[5.7982705E-3,7.5329363E-1,-4.3334082E-1,7.733663E-2,2.2811688E-2,-5.84612E-2,7.039851E-2],"categories":[],"categories_nodes":[],"categories_segments":[],"categories_sizes":[],"default_left":[0,0,0,0,0,0,0],"id":32,"left_children":[1,3,5,-1,-1,-1,-1],"loss_changes":[2.5908134E1,1.3146019E-1,8.9667845E0,0E0,0E0,0E0,0E0],"parents":[2147483647,0,0,1,1,2,2],"right_children":[2,4,6,-1,-1,-1,-1],"split_conditions":[2.951E-1,2.85E2,2.45E2,7.733663E-2,2.2811688E-2,-5.84612E-2,7.039851E-2],"split_indices":[29,0,17,0,0,0,0],"split_type":[0,0,0,0,0,0,0],"sum_hessian":[7.693255E1,2.8205769E1,4.8726784E1,2.6712223E1,1.4935458E0,4.3435566E1,5.2912145E0],"tree_param":{"num_deleted":"0","num_feature":"31","num_nodes":"7","size_leaf_vector":"1"}},{"base_weights":[-5.463738E-3,-5.5339523E-2,3.9047724E-1,-4.4735876E-1,7.253288E-1,-5.206682E-2,1.596361E-2,8.321153E-2,-4.0474486E-2],"categories":[],"categories_nodes":[],"categories_segments":[],"categories_sizes":[],"default_left":[0,0,0,0,0,0,0,0,0],"id":33,"left_children":[1,-1,3,5,7,-1,-1,-1,-1],"loss_changes":[1.4694121E1,0E0,1.1357658E1,6.1033416E-1,3.773531E0,0E0,0E0,0E0,0E0],"parents":[2147483647,0,0,2,2,3,3,4,4],"right_children":[2,-1,4,6,8,-1,-1,-1,-1],"split_conditions":[5.07E-1,-5.5339523E-2,2.951E-1,2.85E2,2.6E2,-5.206682E-2,1.596361E-2,8.321153E-2,-4.0474486E-2],"split_indices":[7,0,29,0,0,0,0,0,0],"split_type":[0,0,0,0,0,0,0,0,0],"sum_hessian":[6.573488E1,2.7408026E1,3.832686E1,1.0847988E1,2.7478868E1,9.805906E0,1.0420825E0,2.534733E1,2.1315384E0],"tree_param":{"num_deleted":"0","num_feature":"31","num_nodes":"9","size_leaf_vector":"1"}},{"base_weights":[6.9418974E-4,-3.4022644E-1,5.137727E-1,-4.3956575E-1,8.554193E-2,7.77794E-2,-5.0778277E-2,9.987346E-2,-5.7102032E-2,-4.7663342E-2,5.5478334E-1,-4.6938207E-2,6.871059E-2,7.9564744E-4,7.0149265E-2],"categories":[],"categories_nodes":[],"categories_segments":[],"categories_sizes":[],"default_left":[0,0,0,0,0,0,0,0,0,0,0,0,0,0,0],"id":34,"left_children":[1,3,5,7,9,-1,-1,11,-1,-1,13,-1,-1,-1,-1],"loss_changes":[1.3367565E1,1.9795952E0,8.623135E0,2.7085352E0,2.7766147E0,0E0,0E0,3.0561762E0,0E0,0E0,4.47909E-1,0E0,0E0,0E0,0E0],"parents":[2147483647,0,0,1,1,2,2,3,3,4,4,7,7,10,10],"right_children":[2,4,6,8,10,-1,-1,12,-1,-1,14,-1,-1,-1,-1],"split_conditions":[1E0,2.6E2,4.071E-1,3.5E1,1E0,7.77794E-2,-5.0778277E-2,6E0,-5.7102032E-2,-4.7663342E-2,6.12E-2,-4.6938207E-2,6.871059E-2,7.9564744E-4,7.0149265E-2],"split_indices":[28,0,7,0,24,0,0,4,0,0,5,0,0,0,0],"split_type":[0,0,0,0,0,0,0,0,0,0,0,0,0,0,0],"sum_hessian":[7.442211E1,4.491485E1,2.9507267E1,3.639163E1,8.523218E0,2.3636919E1,5.8703475E0,7.177629E0,2.9213999E1,3.8704576E0,4.6527605E0,3.746504E0,3.4311252E0,1.2072463E0,3.4455142E0],"tree_param":{"num_deleted":"0","num_feature":"31","num_nodes":"15","size_leaf_vector":"1"}},{"base_weights":[-2.4675243E-3,-5.3984907E-2,7.1740186E-1,8.455067E-1,-3.9027434E-2,1.3683468E-2,8.747244E-2],"categories":[],"categories_nodes":[],"categories_segments":[],"categories_sizes":[],"default_left":[0,0,0,0,0,0,0],"id":35,"left_children":[1,-1,3,5,-1,-1,-1],"loss_changes":[2.2274628E1,0E0,3.8225021E0,3.4364223E-1,0E0,0E0,0E0],"parents":[2147483647,0,0,2,2,3,3],"right_children":[2,-1,4,6,-1,-1,-1],"split_conditions":[8.352E-1,-5.3984907E-2,2.45E2,4E1,-3.9027434E-2,1.3683468E-2,8.747244E-2],"split_indices":[29,0,0,0,0,0,0],"split_type":[0,0,0,0,0,0,0],"sum_hessian":[5.5579166E1,3.1966381E1,2.3612785E1,2.1377161E1,2.2356248E0,1.0714915E0,2.030567E1],"tree_param":{"num_deleted":"0","num_feature":"31","num_nodes":"7","size_leaf_vector":"1"}},{"base_weights":[6.4605717E-3,7.169602E-1,-4.2327023E-1,7.370096E-2,2.1472069E-2,-5.7477314E-2,6.693305E-2],"categories":[],"categories_nodes":[],"categories_segments":[],"categories_sizes":[],"default_left":[0,0,0,0,0,0,0],"id":36,"left_children":[1,3,5,-1,-1,-1,-1],"loss_changes":[2.289235E1,1.262579E-1,8.119914E0,0E0,0E0,0E0,0E0],"parents":[2147483647,0,0,1,1,2,2],"right_children":[2,4,6,-1,-1,-1,-1],"split_conditions":[2.951E-1,2.85E2,2.45E2,7.370096E-2,2.1472069E-2,-5.7477314E-2,6.693305E-2],"split_indices":[29,0,17,0,0,0,0],"split_type":[0,0,0,0,0,0,0],"sum_hessian":[7.298342E1,2.7254135E1,4.5729282E1,2.5758413E1,1.4957205E0,4.0576744E1,5.152539E0],"tree_param":{"num_deleted":"0","num_feature":"31","num_nodes":"7","size_leaf_vector":"1"}},{"base_weights":[-5.9656193E-3,-5.458373E-2,3.7238273E-1,-4.3490818E-1,6.847235E-1,-5.1419575E-2,1.4809325E-2,7.859486E-2,-3.953782E-2],"categories":[],"categories_nodes":[],"categories_segments":[],"categories_sizes":[],"default_left":[0,0,0,0,0,0,0,0,0],"id":37,"left_children":[1,-1,3,5,7,-1,-1,-1,-1],"loss_changes":[1.3170373E1,0E0,9.859281E0,5.9340286E-1,3.3425531E0,0E0,0E0,0E0,0E0],"parents":[2147483647,0,0,2,2,3,3,4,4],"right_children":[2,-1,4,6,8,-1,-1,-1,-1],"split_conditions":[5.07E-1,-5.458373E-2,2.951E-1,8.828E-1,2.6E2,-5.1419575E-2,1.4809325E-2,7.859486E-2,-3.953782E-2],"split_indices":[7,0,29,7,0,0,0,0,0],"split_type":[0,0,0,0,0,0,0,0,0],"sum_hessian":[6.24835E1,2.5563635E1,3.691987E1,1.0189969E1,2.6729898E1,9.073942E0,1.1160271E0,2.4688478E1,2.041421E0],"tree_param":{"num_deleted":"0","num_feature":"31","num_nodes":"9","size_leaf_vector":"1"}},{"base_weights":[6.492816E-4,-3.3029017E-1,4.9043342E-1,-4.293794E-1,8.229233E-2,7.393136E-2,-4.9590733E-2,9.9133596E-2,-5.616652E-2,-4.6524882E-2,5.2531797E-1,-4.5679346E-2,6.5198846E-2,7.9850276E-4,6.637505E-2],"categories":[],"categories_nodes":[],"categories_segments":[],"categories_sizes":[],"default_left":[0,0,0,0,0,0,0,0,0,0,0,0,0,0,0],"id":38,"left_children":[1,3,5,7,9,-1,-1,11,-1,-1,13,-1,-1,-1,-1],"loss_changes":[1.1785493E1,1.8093252E0,7.5636964E0,2.5131817E0,2.48639E0,0E0,0E0,2.7217705E0,0E0,0E0,3.9420784E-1,0E0,0E0,0E0,0E0],"parents":[2147483647,0,0,1,1,2,2,3,3,4,4,7,7,10,10],"right_children":[2,4,6,8,10,-1,-1,12,-1,-1,14,-1,-1,-1,-1],"split_conditions":[1E0,2.6E2,4.071E-1,3.5E1,1E0,7.393136E-2,-4.9590733E-2,6E0,-5.616652E-2,-4.6524882E-2,4.5E1,-4.5679346E-2,6.5198846E-2,7.9850276E-4,6.637505E-2],"split_indices":[28,0,7,0,24,0,0,4,0,0,17,0,0,0,0],"split_type":[0,0,0,0,0,0,0,0,0,0,0,0,0,0,0],"sum_hessian":[7.07107E1,4.2392437E1,2.8318262E1,3.4149982E1,8.2424555E0,2.2812506E1,5.5057573E0,6.8866773E0,2.7263304E1,3.6639588E0,4.5784965E0,3.5204346E0,3.3662426E0,1.1898007E0,3.388696E0],"tree_param":{"num_deleted":"0","num_feature":"31","num_nodes":"15","size_leaf_vector":"1"}},{"base_weights":[-2.7067869E-3,-5.339488E-2,6.741536E-1,7.9277784E-1,-3.805129E-2,1.3097796E-2,8.2057066E-2],"categories":[],"categories_nodes":[],"categories_segments":[],"categories_sizes":[],"default_left":[0,0,0,0,0,0,0],"id":39,"left_children":[1,-1,3,5,-1,-1,-1],"loss_changes":[1.973038E1,0E0,3.320591E0,2.9745197E-1,0E0,0E0,0E0],"parents":[2147483647,0,0,2,2,3,3],"right_children":[2,-1,4,6,-1,-1,-1],"split_conditions":[8.352E-1,-5.339488E-2,2.45E2,4E1,-3.805129E-2,1.3097796E-2,8.2057066E-2],"split_indices":[29,0,0,0,0,0,0],"split_type":[0,0,0,0,0,0,0],"sum_hessian":[5.287006E1,2.9739668E1,2.3130394E1,2.101503E1,2.1153626E0,1.0772114E0,1.9937819E1],"tree_param":{"num_deleted":"0","num_feature":"31","num_nodes":"7","size_leaf_vector":"1"}},{"base_weights":[7.172588E-3,6.854794E-1,-4.139564E-1,7.062882E-2,1.9648453E-2,-5.6575783E-2,6.388642E-2],"categories":[],"categories_nodes":[],"categories_segments":[],"categories_sizes":[],"default_left":[0,0,0,0,0,0,0],"id":40,"left_children":[1,3,5,-1,-1,-1,-1],"loss_changes":[2.0281986E1,1.3792038E-1,7.3640676E0,0E0,0E0,0E0,0E0],"parents":[2147483647,0,0,1,1,2,2],"right_children":[2,4,6,-1,-1,-1,-1],"split_conditions":[2.951E-1,2.85E2,2.45E2,7.062882E-2,1.9648453E-2,-5.6575783E-2,6.388642E-2],"split_indices":[29,0,17,0,0,0,0],"split_type":[0,0,0,0,0,0,0],"sum_hessian":[6.90084E1,2.6192606E1,4.2815796E1,2.4697266E1,1.4953399E0,3.7824657E1,4.991138E0],"tree_param":{"num_deleted":"0","num_feature":"31","num_nodes":"7","size_leaf_vector":"1"}},{"base_weights":[-6.466638E-3,-5.387185E-2,3.5643175E-1,-4.2235017E-1,6.5003854E-1,-5.0542273E-2,1.5145041E-2,7.469595E-2,-3.861615E-2],"categories":[],"categories_nodes":[],"categories_segments":[],"categories_sizes":[],"default_left":[0,0,0,0,0,0,0,0,0],"id":41,"left_children":[1,-1,3,5,7,-1,-1,-1,-1],"loss_changes":[1.1817525E1,0E0,8.595161E0,5.8034456E-1,2.981985E0,0E0,0E0,0E0,0E0],"parents":[2147483647,0,0,2,2,3,3,4,4],"right_children":[2,-1,4,6,8,-1,-1,-1,-1],"split_conditions":[5.07E-1,-5.387185E-2,2.951E-1,8.828E-1,2.6E2,-5.0542273E-2,1.5145041E-2,7.469595E-2,-3.861615E-2],"split_indices":[7,0,29,7,0,0,0,0,0],"split_type":[0,0,0,0,0,0,0,0,0],"sum_hessian":[5.9187973E1,2.3798687E1,3.5389286E1,9.5690975E0,2.582019E1,8.463021E0,1.106076E0,2.3866932E1,1.9532576E0],"tree_param":{"num_deleted":"0","num_feature":"31","num_nodes":"9","size_leaf_vector":"1"}},{"base_weights":[5.8512896E-4,-3.2098976E-1,4.7014883E-1,-5.453759E-2,-1.3095756E-1,7.064458E-2,-4.844516E-2,3.2019338E-1,-5.3205814E-2,4.409923E-1,-3.3513457E-2,5.6459713E-1,-3.0264307E-2,6.2339377E-2,1.7824283E-2],"categories":[],"categories_nodes":[],"categories_segments":[],"categories_sizes":[],"default_left":[0,0,0,0,0,0,0,0,0,0,0,0,0,0,0],"id":42,"left_children":[1,3,5,-1,7,-1,-1,9,-1,11,-1,13,-1,-1,-1],"loss_changes":[1.0412207E1,1.673769E0,6.66443E0,0E0,4.4185696E0,0E0,0E0,1.0718704E0,0E0,1.1165204E0,0E0,9.720993E-2,0E0,0E0,0E0],"parents":[2147483647,0,0,1,1,2,2,4,4,7,7,9,9,11,11],"right_children":[2,4,6,-1,8,-1,-1,10,-1,12,-1,14,-1,-1,-1],"split_conditions":[1E0,4.965E-1,4.071E-1,-5.453759E-2,8.771E-1,7.064458E-2,-4.844516E-2,1E0,-5.3205814E-2,8E1,-3.3513457E-2,8.352E-1,-3.0264307E-2,6.2339377E-2,1.7824283E-2],"split_indices":[28,29,7,0,29,0,0,15,0,17,0,29,0,0,0],"split_type":[0,0,0,0,0,0,0,0,0,0,0,0,0,0,0],"sum_hessian":[6.6955635E1,3.992791E1,2.7027725E1,1.7451557E1,2.2476353E1,2.187328E1,5.154444E0,1.0673123E1,1.180323E1,9.288084E0,1.3850392E0,8.170731E0,1.1173537E0,6.5590286E0,1.611702E0],"tree_param":{"num_deleted":"0","num_feature":"31","num_nodes":"15","size_leaf_vector":"1"}},{"base_weights":[-2.98748E-3,-5.283438E-2,6.372915E-1,7.48362E-1,-3.7081797E-2,1.2549131E-2,7.7521585E-2],"categories":[],"categories_nodes":[],"categories_segments":[],"categories_sizes":[],"default_left":[0,0,0,0,0,0,0],"id":43,"left_children":[1,-1,3,5,-1,-1,-1],"loss_changes":[1.7528631E1,0E0,2.9075432E0,2.62146E-1,0E0,0E0,0E0],"parents":[2147483647,0,0,2,2,3,3],"right_children":[2,-1,4,6,-1,-1,-1],"split_conditions":[8.352E-1,-5.283438E-2,2.45E2,4E1,-3.7081797E-2,1.2549131E-2,7.7521585E-2],"split_indices":[29,0,0,0,0,0,0],"split_type":[0,0,0,0,0,0,0],"sum_hessian":[5.010945E1,2.7620956E1,2.2488495E1,2.048876E1,1.9997337E0,1.0812984E0,1.9407463E1],"tree_param":{"num_deleted":"0","num_feature":"31","num_nodes":"7","size_leaf_vector":"1"}},{"base_weights":[7.7076396E-3,6.574224E-1,-4.05302E-1,6.83309E-2,2.1160556E-2,-5.573654E-2,6.113398E-2],"categories":[],"categories_nodes":[],"categories_segments":[],"categories_sizes":[],"default_left":[0,0,0,0,0,0,0],"id":44,"left_children":[1,3,5,-1,-1,-1,-1],"loss_changes":[1.7983582E1,1.5593815E-1,6.676671E0,0E0,0E0,0E0,0E0],"parents":[2147483647,0,0,1,1,2,2],"right_children":[2,4,6,-1,-1,-1,-1],"split_conditions":[2.951E-1,8.828E-1,2.45E2,6.83309E-2,2.1160556E-2,-5.573654E-2,6.113398E-2],"split_indices":[29,7,17,0,0,0,0],"split_type":[0,0,0,0,0,0,0],"sum_hessian":[6.50253E1,2.5040981E1,3.9984318E1,2.3163284E1,1.8776965E0,3.5174828E1,4.80949E0],"tree_param":{"num_deleted":"0","num_feature":"31","num_nodes":"7","size_leaf_vector":"1"}},{"base_weights":[-6.327797E-3,-5.319603E-2,3.4312496E-1,-4.100069E-1,6.2121964E-1,-4.9459346E-2,1.6659237E-2,7.144223E-2,-3.7624147E-2],"categories":[],"categories_nodes":[],"categories_segments":[],"categories_sizes":[],"default_left":[0,0,0,0,0,0,0,0,0],"id":45,"left_children":[1,-1,3,5,7,-1,-1,-1,-1],"loss_changes":[1.0636715E1,0E0,7.5420585E0,5.6941235E-1,2.6681242E0,0E0,0E0,0E0,0E0],"parents":[2147483647,0,0,2,2,3,3,4,4],"right_children":[2,-1,4,6,8,-1,-1,-1,-1],"split_conditions":[5.07E-1,-5.319603E-2,2.951E-1,2.85E2,2.6E2,-4.9459346E-2,1.6659237E-2,7.144223E-2,-3.7624147E-2],"split_indices":[7,0,29,0,0,0,0,0,0],"split_type":[0,0,0,0,0,0,0,0,0],"sum_hessian":[5.5914062E1,2.2119919E1,3.3794144E1,8.985475E0,2.4808668E1,7.9599767E0,1.0254977E0,2.2948154E1,1.8605136E0],"tree_param":{"num_deleted":"0","num_feature":"31","num_nodes":"9","size_leaf_vector":"1"}},{"base_weights":[-3.802584E-5,-3.1260368E-1,4.5236218E-1,-5.365907E-2,-1.2619045E-1,6.7809954E-2,-4.73348E-2,3.0398306E-1,-5.2277464E-2,4.1804114E-1,-3.241295E-2,5.339405E-1,-2.9207602E-2,5.9100904E-2,1.6809314E-2],"categories":[],"categories_nodes":[],"categories_segments":[],"categories_sizes":[],"default_left":[0,0,0,0,0,0,0,0,0,0,0,0,0,0,0],"id":46,"left_children":[1,3,5,-1,7,-1,-1,9,-1,11,-1,13,-1,-1,-1],"loss_changes":[9.230369E0,1.544173E0,5.8945417E0,0E0,3.9763937E0,0E0,0E0,9.4978535E-1,0E0,9.8359025E-1,0E0,8.8534355E-2,0E0,0E0,0E0],"parents":[2147483647,0,0,1,1,2,2,4,4,7,7,9,9,11,11],"right_children":[2,4,6,-1,8,-1,-1,10,-1,12,-1,14,-1,-1,-1],"split_conditions":[1E0,4.965E-1,4.071E-1,-5.365907E-2,8.771E-1,6.7809954E-2,-4.73348E-2,1E0,-5.2277464E-2,8E1,-3.241295E-2,8.352E-1,-2.9207602E-2,5.9100904E-2,1.6809314E-2],"split_indices":[28,29,7,0,29,0,0,15,0,17,0,29,0,0,0],"split_type":[0,0,0,0,0,0,0,0,0,0,0,0,0,0,0],"sum_hessian":[6.3276176E1,3.760423E1,2.5671946E1,1.622745E1,2.1376781E1,2.0854094E1,4.8178535E0,1.0366151E1,1.1010632E1,9.056112E0,1.310038E0,7.9987235E0,1.0573889E0,6.3869677E0,1.6117557E0],"tree_param":{"num_deleted":"0","num_feature":"31","num_nodes":"15","size_leaf_vector":"1"}},{"base_weights":[-3.0264012E-3,-5.229634E-2,6.0545796E-1,7.104354E-1,-3.6129814E-2,1.1785021E-2,7.372512E-2],"categories":[],"categories_nodes":[],"categories_segments":[],"categories_sizes":[],"default_left":[0,0,0,0,0,0,0],"id":47,"left_children":[1,-1,3,5,-1,-1,-1],"loss_changes":[1.561145E1,0E0,2.5643787E0,2.4441242E-1,0E0,0E0,0E0],"parents":[2147483647,0,0,2,2,3,3],"right_children":[2,-1,4,6,-1,-1,-1],"split_conditions":[8.352E-1,-5.229634E-2,2.45E2,4E1,-3.6129814E-2,1.1785021E-2,7.372512E-2],"split_indices":[29,0,0,0,0,0,0],"split_type":[0,0,0,0,0,0,0],"sum_hessian":[4.7344177E1,2.5605429E1,2.173875E1,1.9848581E1,1.8901691E0,1.0928633E0,1.8755716E1],"tree_param":{"num_deleted":"0","num_feature":"31","num_nodes":"7","size_leaf_vector":"1"}},{"base_weights":[8.24264E-3,6.325777E-1,-3.972414E-1,6.560437E-2,1.571441E-2,-5.4962393E-2,5.867281E-2],"categories":[],"categories_nodes":[],"categories_segments":[],"categories_sizes":[],"default_left":[0,0,0,0,0,0,0],"id":48,"left_children":[1,3,5,-1,-1,-1,-1],"loss_changes":[1.5975508E1,1.74057E-1,6.0607157E0,0E0,0E0,0E0,0E0],"parents":[2147483647,0,0,1,1,2,2],"right_children":[2,4,6,-1,-1,-1,-1],"split_conditions":[2.951E-1,2.85E2,2.45E2,6.560437E-2,1.571441E-2,-5.4962393E-2,5.867281E-2],"split_indices":[29,0,17,0,0,0,0],"split_type":[0,0,0,0,0,0,0],"sum_hessian":[6.1112305E1,2.3842024E1,3.7270283E1,2.2358587E1,1.4834358E0,3.265464E1,4.61564E0],"tree_param":{"num_deleted":"0","num_feature":"31","num_nodes":"7","size_leaf_vector":"1"}},{"base_weights":[-6.1331014E-3,-5.255419E-2,3.3138216E-1,-3.9773333E-1,5.9610265E-1,-4.8923682E-2,1.6193189E-2,6.863599E-2,-3.665046E-2],"categories":[],"categories_nodes":[],"categories_segments":[],"categories_sizes":[],"default_left":[0,0,0,0,0,0,0,0,0],"id":49,"left_children":[1,-1,3,5,7,-1,-1,-1,-1],"loss_changes":[9.584336E0,0E0,6.635266E0,5.621195E-1,2.3992558E0,0E0,0E0,0E0,0E0],"parents":[2147483647,0,0,2,2,3,3,4,4],"right_children":[2,-1,4,6,8,-1,-1,-1,-1],"split_conditions":[5.07E-1,-5.255419E-2,2.951E-1,8.828E-1,2.6E2,-4.8923682E-2,1.6193189E-2,6.863599E-2,-3.665046E-2],"split_indices":[7,0,29,7,0,0,0,0,0],"split_type":[0,0,0,0,0,0,0,0,0],"sum_hessian":[5.2677868E1,2.0528725E1,3.2149143E1,8.429484E0,2.371966E1,7.353113E0,1.076371E0,2.1948658E1,1.7710018E0],"tree_param":{"num_deleted":"0","num_feature":"31","num_nodes":"9","size_leaf_vector":"1"}},{"base_weights":[-6.9883076E-4,-3.0472338E-1,4.3664318E-1,-5.2834343E-2,-1.21681534E-1,6.534346E-2,-4.62528E-2,2.8913027E-1,-5.138967E-2,3.9716586E-1,-3.1332258E-2,4.8902625E-1,-7.2993226E-3,5.4455936E-2,1.5871946E-2],"categories":[],"categories_nodes":[],"categories_segments":[],"categories_sizes":[],"default_left":[0,0,0,0,0,0,0,0,0,0,0,0,0,0,0],"id":50,"left_children":[1,3,5,-1,7,-1,-1,9,-1,11,-1,13,-1,-1,-1],"loss_changes":[8.196797E0,1.4242058E0,5.230402E0,0E0,3.5799625E0,0E0,0E0,8.430882E-1,0E0,4.5909858E-1,0E0,6.63836E-2,0E0,0E0,0E0],"parents":[2147483647,0,0,1,1,2,2,4,4,7,7,9,9,11,11],"right_children":[2,4,6,-1,8,-1,-1,10,-1,12,-1,14,-1,-1,-1],"split_conditions":[1E0,4.965E-1,4.071E-1,-5.2834343E-2,8.771E-1,6.534346E-2,-4.62528E-2,1E0,-5.138967E-2,7.5E1,-3.1332258E-2,8.352E-1,-7.2993226E-3,5.4455936E-2,1.5871946E-2],"split_indices":[28,29,7,0,29,0,0,15,0,17,0,29,0,0,0],"split_type":[0,0,0,0,0,0,0,0,0,0,0,0,0,0,0],"sum_hessian":[5.9646645E1,3.5365234E1,2.4281408E1,1.5069067E1,2.0296167E1,1.9784605E1,4.4968033E0,1.0041443E1,1.0254725E1,8.803497E0,1.2379459E0,7.3310223E0,1.472475E0,5.720595E0,1.6104271E0],"tree_param":{"num_deleted":"0","num_feature":"31","num_nodes":"15","size_leaf_vector":"1"}},{"base_weights":[-3.07805E-3,-5.1779103E-2,5.776471E-1,6.776423E-1,-3.5185035E-2,1.1070022E-2,7.047218E-2],"categories":[],"categories_nodes":[],"categories_segments":[],"categories_sizes":[],"default_left":[0,0,0,0,0,0,0],"id":51,"left_children":[1,-1,3,5,-1,-1,-1],"loss_changes":[1.3930913E1,0E0,2.2740564E0,2.3081493E-1,0E0,0E0,0E0],"parents":[2147483647,0,0,2,2,3,3],"right_children":[2,-1,4,6,-1,-1,-1],"split_conditions":[8.352E-1,-5.1779103E-2,2.45E2,4E1,-3.5185035E-2,1.1070022E-2,7.047218E-2],"split_indices":[29,0,0,0,0,0,0],"split_type":[0,0,0,0,0,0,0],"sum_hessian":[4.4605568E1,2.3704224E1,2.0901346E1,1.9115826E1,1.785519E0,1.1033732E0,1.8012453E1],"tree_param":{"num_deleted":"0","num_feature":"31","num_nodes":"7","size_leaf_vector":"1"}},{"base_weights":[8.67177E-3,6.1050534E-1,-3.8976675E-1,6.391181E-2,1.7119918E-2,-5.4249343E-2,5.6453157E-2],"categories":[],"categories_nodes":[],"categories_segments":[],"categories_sizes":[],"default_left":[0,0,0,0,0,0,0],"id":52,"left_children":[1,3,5,-1,-1,-1,-1],"loss_changes":[1.42197075E1,1.874218E-1,5.508271E0,0E0,0E0,0E0,0E0],"parents":[2147483647,0,0,1,1,2,2],"right_children":[2,4,6,-1,-1,-1,-1],"split_conditions":[2.951E-1,8.828E-1,2.45E2,6.391181E-2,1.7119918E-2,-5.4249343E-2,5.6453157E-2],"split_indices":[29,7,17,0,0,0,0],"split_type":[0,0,0,0,0,0,0],"sum_hessian":[5.7307426E1,2.2615265E1,3.469216E1,2.0805346E1,1.8099192E0,3.0277977E1,4.4141846E0],"tree_param":{"num_deleted":"0","num_feature":"31","num_nodes":"7","size_leaf_vector":"1"}},{"base_weights":[-5.912986E-3,-5.1942397E-2,3.2070273E-1,-3.8538E-1,5.736695E-1,-4.8120752E-2,1.63807E-2,6.620958E-2,-3.5809852E-2],"categories":[],"categories_nodes":[],"categories_segments":[],"categories_sizes":[],"default_left":[0,0,0,0,0,0,0,0,0],"id":53,"left_children":[1,-1,3,5,7,-1,-1,-1,-1],"loss_changes":[8.642594E0,0E0,5.8488417E0,5.476755E-1,2.181467E0,0E0,0E0,0E0,0E0],"parents":[2147483647,0,0,2,2,3,3,4,4],"right_children":[2,-1,4,6,8,-1,-1,-1,-1],"split_conditions":[5.07E-1,-5.1942397E-2,2.951E-1,8.828E-1,2.6E2,-4.8120752E-2,1.63807E-2,6.620958E-2,-3.5809852E-2],"split_indices":[7,0,29,7,0,0,0,0,0],"split_type":[0,0,0,0,0,0,0,0,0],"sum_hessian":[4.9536465E1,1.9028772E1,3.0507692E1,7.9088926E0,2.25988E1,6.8392887E0,1.0696043E0,2.0904362E1,1.6944379E0],"tree_param":{"num_deleted":"0","num_feature":"31","num_nodes":"9","size_leaf_vector":"1"}},{"base_weights":[-1.170217E-3,-2.9671374E-1,4.2263684E-1,-5.204879E-2,-1.16772175E-1,6.3179135E-2,-4.5193743E-2,2.756499E-1,-5.0535884E-2,3.7800092E-1,-3.0271633E-2,4.6462968E-1,-6.7809173E-3,5.1914085E-2,1.5004846E-2],"categories":[],"categories_nodes":[],"categories_segments":[],"categories_sizes":[],"default_left":[0,0,0,0,0,0,0,0,0,0,0,0,0,0,0],"id":54,"left_children":[1,3,5,-1,7,-1,-1,9,-1,11,-1,13,-1,-1,-1],"loss_changes":[7.2803154E0,1.3180182E0,4.6539693E0,0E0,3.2301369E0,0E0,0E0,7.49713E-1,0E0,4.0082633E-1,0E0,6.1593533E-2,0E0,0E0,0E0],"parents":[2147483647,0,0,1,1,2,2,4,4,7,7,9,9,11,11],"right_children":[2,4,6,-1,8,-1,-1,10,-1,12,-1,14,-1,-1,-1],"split_conditions":[1E0,4.965E-1,4.071E-1,-5.204879E-2,8.771E-1,6.3179135E-2,-4.5193743E-2,1E0,-5.0535884E-2,7.5E1,-3.0271633E-2,8.352E-1,-6.7809173E-3,5.1914085E-2,1.5004846E-2],"split_indices":[28,29,7,0,29,0,0,15,0,17,0,29,0,0,0],"split_type":[0,0,0,0,0,0,0,0,0,0,0,0,0,0,0],"sum_hessian":[5.6123493E1,3.3241962E1,2.288153E1,1.3972862E1,1.9269102E1,1.8689528E1,4.192002E0,9.731841E0,9.537261E0,8.562929E0,1.1689117E0,7.1343784E0,1.4285505E0,5.52648E0,1.6078982E0],"tree_param":{"num_deleted":"0","num_feature":"31","num_nodes":"15","size_leaf_vector":"1"}},{"base_weights":[-3.2603166E-3,-5.1285416E-2,5.5309033E-1,6.489779E-1,-3.4248512E-2,1.0400431E-2,6.765803E-2],"categories":[],"categories_nodes":[],"categories_segments":[],"categories_sizes":[],"default_left":[0,0,0,0,0,0,0],"id":55,"left_children":[1,-1,3,5,-1,-1,-1],"loss_changes":[1.2454449E1,0E0,2.0259633E0,2.2022343E-1,0E0,0E0,0E0],"parents":[2147483647,0,0,2,2,3,3],"right_children":[2,-1,4,6,-1,-1,-1],"split_conditions":[8.352E-1,-5.1285416E-2,2.45E2,4E1,-3.4248512E-2,1.0400431E-2,6.765803E-2],"split_indices":[29,0,0,0,0,0,0],"split_type":[0,0,0,0,0,0,0],"sum_hessian":[4.1928535E1,2.1924654E1,2.0003881E1,1.8317963E1,1.6859176E0,1.1129127E0,1.7205051E1],"tree_param":{"num_deleted":"0","num_feature":"31","num_nodes":"7","size_leaf_vector":"1"}},{"base_weights":[9.137628E-3,5.904865E-1,-3.82729E-1,6.1778363E-2,1.1696083E-2,-5.358542E-2,5.4434884E-2],"categories":[],"categories_nodes":[],"categories_segments":[],"categories_sizes":[],"default_left":[0,0,0,0,0,0,0],"id":56,"left_children":[1,3,5,-1,-1,-1,-1],"loss_changes":[1.2673899E1,2.1721411E-1,5.0113516E0,0E0,0E0,0E0,0E0],"parents":[2147483647,0,0,1,1,2,2],"right_children":[2,4,6,-1,-1,-1,-1],"split_conditions":[2.951E-1,2.85E2,2.45E2,6.1778363E-2,1.1696083E-2,-5.358542E-2,5.4434884E-2],"split_indices":[29,0,17,0,0,0,0],"split_type":[0,0,0,0,0,0,0],"sum_hessian":[5.3641304E1,2.1394663E1,3.2246643E1,1.9940517E1,1.4541464E0,2.8037664E1,4.208977E0],"tree_param":{"num_deleted":"0","num_feature":"31","num_nodes":"7","size_leaf_vector":"1"}},{"base_weights":[-5.6604226E-3,-5.135523E-2,3.110367E-1,-3.7289494E-1,5.537193E-1,-4.727229E-2,1.5863504E-2,6.408185E-2,-3.4987777E-2],"categories":[],"categories_nodes":[],"categories_segments":[],"categories_sizes":[],"default_left":[0,0,0,0,0,0,0,0,0],"id":57,"left_children":[1,-1,3,5,7,-1,-1,-1,-1],"loss_changes":[7.7991195E0,0E0,5.165284E0,5.2188706E-1,1.991394E0,0E0,0E0,0E0,0E0],"parents":[2147483647,0,0,2,2,3,3,4,4],"right_children":[2,-1,4,6,8,-1,-1,-1,-1],"split_conditions":[5.07E-1,-5.135523E-2,2.951E-1,8.828E-1,2.6E2,-4.727229E-2,1.5863504E-2,6.408185E-2,-3.4987777E-2],"split_indices":[7,0,29,7,0,0,0,0,0],"split_type":[0,0,0,0,0,0,0,0,0],"sum_hessian":[4.6494465E1,1.7618242E1,2.8876225E1,7.4222302E0,2.1453993E1,6.3417983E0,1.0804317E0,1.9833067E1,1.6209267E0],"tree_param":{"num_deleted":"0","num_feature":"31","num_nodes":"9","size_leaf_vector":"1"}},{"base_weights":[-1.6834906E-3,-2.8906575E-1,4.100559E-1,-5.1302392E-2,-1.12049416E-1,6.126445E-2,-4.4152748E-2,2.6316398E-1,-4.971003E-2,3.60338E-1,-2.9231248E-2,4.4220555E-1,-6.278603E-3,4.9590874E-2,1.42014595E-2],"categories":[],"categories_nodes":[],"categories_segments":[],"categories_sizes":[],"default_left":[0,0,0,0,0,0,0,0,0,0,0,0,0,0,0],"id":58,"left_children":[1,3,5,-1,7,-1,-1,9,-1,11,-1,13,-1,-1,-1],"loss_changes":[6.4742217E0,1.2198627E0,4.150995E0,0E0,2.915679E0,0E0,0E0,6.6758317E-1,0E0,3.50379E-1,0E0,5.7379603E-2,0E0,0E0,0E0],"parents":[2147483647,0,0,1,1,2,2,4,4,7,7,9,9,11,11],"right_children":[2,4,6,-1,8,-1,-1,10,-1,12,-1,14,-1,-1,-1],"split_conditions":[1E0,4.965E-1,4.071E-1,-5.1302392E-2,8.771E-1,6.126445E-2,-4.4152748E-2,1E0,-4.971003E-2,7.5E1,-2.9231248E-2,8.352E-1,-6.278603E-3,4.9590874E-2,1.42014595E-2],"split_indices":[28,29,7,0,29,0,0,15,0,17,0,29,0,0,0],"split_type":[0,0,0,0,0,0,0,0,0,0,0,0,0,0,0],"sum_hessian":[5.2713104E1,3.1220224E1,2.1492878E1,1.2944668E1,1.8275557E1,1.7589083E1,3.9037967E0,9.416339E0,8.859218E0,8.313321E0,1.1030178E0,6.9278073E0,1.3855139E0,5.3234773E0,1.6043303E0],"tree_param":{"num_deleted":"0","num_feature":"31","num_nodes":"15","size_leaf_vector":"1"}},{"base_weights":[-3.4721408E-3,-5.0806593E-2,5.311842E-1,6.236617E-1,-3.3321302E-2,9.772899E-3,6.520159E-2],"categories":[],"categories_nodes":[],"categories_segments":[],"categories_sizes":[],"default_left":[0,0,0,0,0,0,0],"id":59,"left_children":[1,-1,3,5,-1,-1,-1],"loss_changes":[1.1149836E1,0E0,1.8121352E0,2.1183538E-1,0E0,0E0,0E0],"parents":[2147483647,0,0,2,2,3,3],"right_children":[2,-1,4,6,-1,-1,-1],"split_conditions":[8.352E-1,-5.0806593E-2,2.45E2,4E1,-3.3321302E-2,9.772899E-3,6.520159E-2],"split_indices":[29,0,0,0,0,0,0],"split_type":[0,0,0,0,0,0,0],"sum_hessian":[3.9328365E1,2.0258596E1,1.9069767E1,1.7478348E1,1.5914193E0,1.1215608E0,1.6356787E1],"tree_param":{"num_deleted":"0","num_feature":"31","num_nodes":"7","size_leaf_vector":"1"}},{"base_weights":[9.57857E-3,5.724434E-1,-3.7606123E-1,6.014666E-2,1.0322141E-2,-5.2963793E-2,5.258533E-2],"categories":[],"categories_nodes":[],"categories_segments":[],"categories_sizes":[],"default_left":[0,0,0,0,0,0,0],"id":60,"left_children":[1,3,5,-1,-1,-1,-1],"loss_changes":[1.1310662E1,2.2633791E-1,4.5636806E0,0E0,0E0,0E0,0E0],"parents":[2147483647,0,0,1,1,2,2],"right_children":[2,4,6,-1,-1,-1,-1],"split_conditions":[2.951E-1,2.85E2,2.45E2,6.014666E-2,1.0322141E-2,-5.2963793E-2,5.258533E-2],"split_indices":[29,0,17,0,0,0,0],"split_type":[0,0,0,0,0,0,0],"sum_hessian":[5.0115967E1,2.0179033E1,2.9936932E1,1.8738169E1,1.4408655E0,2.5933735E1,4.0031962E0],"tree_param":{"num_deleted":"0","num_feature":"31","num_nodes":"7","size_leaf_vector":"1"}},{"base_weights":[-5.381546E-3,-5.0788682E-2,3.0228123E-1,-3.6045295E-1,5.3582704E-1,-4.6491582E-2,1.6066683E-2,6.2202174E-2,-3.4184337E-2],"categories":[],"categories_nodes":[],"categories_segments":[],"categories_sizes":[],"default_left":[0,0,0,0,0,0,0,0,0],"id":61,"left_children":[1,-1,3,5,7,-1,-1,-1,-1],"loss_changes":[7.043505E0,0E0,4.5685496E0,5.082327E-1,1.8243613E0,0E0,0E0,0E0,0E0],"parents":[2147483647,0,0,2,2,3,3,4,4],"right_children":[2,-1,4,6,8,-1,-1,-1,-1],"split_conditions":[5.07E-1,-5.0788682E-2,2.951E-1,8.828E-1,2.6E2,-4.6491582E-2,1.6066683E-2,6.2202174E-2,-3.4184337E-2],"split_indices":[7,0,29,7,0,0,0,0,0],"split_type":[0,0,0,0,0,0,0,0,0],"sum_hessian":[4.3565872E1,1.629708E1,2.7268793E1,6.963901E0,2.0304893E1,5.8908772E0,1.0730238E0,1.8754337E1,1.5505555E0],"tree_param":{"num_deleted":"0","num_feature":"31","num_nodes":"9","size_leaf_vector":"1"}},{"base_weights":[-2.1682368E-3,-2.8166312E-1,3.9866427E-1,-5.058175E-2,-1.0749389E-1,5.9557118E-2,-4.312568E-2,2.51543E-1,-4.89065E-2,3.572533E-2,5.399288E-2,5.259597E-2,-4.33917E-2],"categories":[],"categories_nodes":[],"categories_segments":[],"categories_sizes":[],"default_left":[0,0,0,0,0,0,0,0,0,0,0,0,0],"id":62,"left_children":[1,3,5,-1,7,-1,-1,9,-1,11,-1,-1,-1],"loss_changes":[5.761981E0,1.1284878E0,3.710147E0,0E0,2.632816E0,0E0,0E0,6.0926163E-1,0E0,1.8046696E0,0E0,0E0,0E0],"parents":[2147483647,0,0,1,1,2,2,4,4,7,7,9,9],"right_children":[2,4,6,-1,8,-1,-1,10,-1,12,-1,-1,-1],"split_conditions":[1E0,4.965E-1,4.071E-1,-5.058175E-2,8.771E-1,5.9557118E-2,-4.312568E-2,2.55E2,-4.89065E-2,3.5E1,5.399288E-2,5.259597E-2,-4.33917E-2],"split_indices":[28,29,7,0,29,0,0,0,0,0,0,0,0],"split_type":[0,0,0,0,0,0,0,0,0,0,0,0,0],"sum_hessian":[4.9429882E1,2.929806E1,2.013182E1,1.1978132E1,1.7319927E1,1.6499523E1,3.6322975E0,9.099028E0,8.220901E0,5.8471265E0,3.2519007E0,2.8021734E0,3.044953E0],"tree_param":{"num_deleted":"0","num_feature":"31","num_nodes":"13","size_leaf_vector":"1"}},{"base_weights":[-3.7132327E-3,-5.034138E-2,5.1144916E-1,6.01079E-1,-3.24045E-2,9.184435E-3,6.3039154E-2],"categories":[],"categories_nodes":[],"categories_segments":[],"categories_sizes":[],"default_left":[0,0,0,0,0,0,0],"id":63,"left_children":[1,-1,3,5,-1,-1,-1],"loss_changes":[9.993669E0,0E0,1.6264715E0,2.050643E-1,0E0,0E0,0E0],"parents":[2147483647,0,0,2,2,3,3],"right_children":[2,-1,4,6,-1,-1,-1],"split_conditions":[8.352E-1,-5.034138E-2,2.45E2,4E1,-3.24045E-2,9.184435E-3,6.3039154E-2],"split_indices":[29,0,0,0,0,0,0],"split_type":[0,0,0,0,0,0,0],"sum_hessian":[3.682121E1,1.8702673E1,1.8118534E1,1.6616524E1,1.5020101E0,1.129391E0,1.5487134E1],"tree_param":{"num_deleted":"0","num_feature":"31","num_nodes":"7","size_leaf_vector":"1"}},{"base_weights":[1.0186104E-2,5.559082E-1,-3.696058E-1,5.8683097E-2,9.023432E-3,-5.2374255E-2,5.087777E-2],"categories":[],"categories_nodes":[],"categories_segments":[],"categories_sizes":[],"default_left":[0,0,0,0,0,0,0],"id":64,"left_children":[1,3,5,-1,-1,-1,-1],"loss_changes":[1.01007595E1,2.3491812E-1,4.1592417E0,0E0,0E0,0E0,0E0],"parents":[2147483647,0,0,1,1,2,2],"right_children":[2,4,6,-1,-1,-1,-1],"split_conditions":[2.951E-1,2.85E2,2.45E2,5.8683097E-2,9.023432E-3,-5.2374255E-2,5.087777E-2],"split_indices":[29,0,17,0,0,0,0],"split_type":[0,0,0,0,0,0,0],"sum_hessian":[4.6743187E1,1.8991142E1,2.7752045E1,1.7564602E1,1.4265409E0,2.3952633E1,3.7994113E0],"tree_param":{"num_deleted":"0","num_feature":"31","num_nodes":"7","size_leaf_vector":"1"}},{"base_weights":[-5.7187937E-3,-5.023868E-2,2.9376733E-1,-3.4793916E-1,5.19564E-1,-4.6025798E-2,1.5490906E-2,6.0456812E-2,-3.323059E-2],"categories":[],"categories_nodes":[],"categories_segments":[],"categories_sizes":[],"default_left":[0,0,0,0,0,0,0,0,0],"id":65,"left_children":[1,-1,3,5,7,-1,-1,-1,-1],"loss_changes":[6.35163E0,0E0,4.042327E0,4.9690586E-1,1.6574788E0,0E0,0E0,0E0,0E0],"parents":[2147483647,0,0,2,2,3,3,4,4],"right_children":[2,-1,4,6,8,-1,-1,-1,-1],"split_conditions":[5.07E-1,-5.023868E-2,2.951E-1,2.5E1,2.6E2,-4.6025798E-2,1.5490906E-2,6.0456812E-2,-3.323059E-2],"split_indices":[7,0,29,17,0,0,0,0,0],"split_type":[0,0,0,0,0,0,0,0,0],"sum_hessian":[4.070922E1,1.5058575E1,2.5650648E1,6.535639E0,1.9115007E1,5.4115787E0,1.1240604E0,1.7644636E1,1.4703724E0],"tree_param":{"num_deleted":"0","num_feature":"31","num_nodes":"9","size_leaf_vector":"1"}},{"base_weights":[-2.312738E-3,-2.7506822E-1,3.8826597E-1,-4.9885042E-2,-1.0282282E-1,5.8022615E-2,-4.210904E-2,2.4543318E-1,-4.8120167E-2,3.567935E-2,5.1980387E-2,5.0784398E-2,-4.240751E-2],"categories":[],"categories_nodes":[],"categories_segments":[],"categories_sizes":[],"default_left":[0,0,0,0,0,0,0,0,0,0,0,0,0],"id":66,"left_children":[1,3,5,-1,7,-1,-1,9,-1,11,-1,-1,-1],"loss_changes":[5.132081E0,1.0418694E0,3.322247E0,0E0,2.3958123E0,0E0,0E0,5.3756714E-1,0E0,1.6372612E0,0E0,0E0,0E0],"parents":[2147483647,0,0,1,1,2,2,4,4,7,7,9,9],"right_children":[2,4,6,-1,8,-1,-1,10,-1,12,-1,-1,-1],"split_conditions":[1E0,4.965E-1,4.071E-1,-4.9885042E-2,8.771E-1,5.8022615E-2,-4.210904E-2,2.55E2,-4.8120167E-2,3.5E1,5.1980387E-2,5.0784398E-2,-4.240751E-2],"split_indices":[28,29,7,0,29,0,0,0,0,0,0,0,0],"split_type":[0,0,0,0,0,0,0,0,0,0,0,0,0],"sum_hessian":[4.617135E1,2.7360352E1,1.8810997E1,1.10752125E1,1.628514E1,1.5433613E1,3.3773854E0,8.663083E0,7.6220565E0,5.5501137E0,3.1129694E0,2.6864994E0,2.863614E0],"tree_param":{"num_deleted":"0","num_feature":"31","num_nodes":"13","size_leaf_vector":"1"}},{"base_weights":[-3.9178953E-3,-4.9881842E-2,4.9376202E-1,5.8109075E-1,-3.1499233E-2,8.86104E-3,6.1096825E-2],"categories":[],"categories_nodes":[],"categories_segments":[],"categories_sizes":[],"default_left":[0,0,0,0,0,0,0],"id":67,"left_children":[1,-1,3,5,-1,-1,-1],"loss_changes":[8.9655075E0,0E0,1.4651566E0,1.9211054E-1,0E0,0E0,0E0],"parents":[2147483647,0,0,2,2,3,3],"right_children":[2,-1,4,6,-1,-1,-1],"split_conditions":[8.352E-1,-4.9881842E-2,2.45E2,4E1,-3.1499233E-2,8.86104E-3,6.1096825E-2],"split_indices":[29,0,0,0,0,0,0],"split_type":[0,0,0,0,0,0,0],"sum_hessian":[3.4400482E1,1.724726E1,1.7153225E1,1.5735603E1,1.4176208E0,1.1268666E0,1.4608737E1],"tree_param":{"num_deleted":"0","num_feature":"31","num_nodes":"7","size_leaf_vector":"1"}},{"base_weights":[1.084655E-2,5.40472E-1,-3.6339566E-1,5.7701897E-2,9.925077E-3,-5.1814895E-2,4.9290184E-2],"categories":[],"categories_nodes":[],"categories_segments":[],"categories_sizes":[],"default_left":[0,0,0,0,0,0,0],"id":68,"left_children":[1,3,5,-1,-1,-1,-1],"loss_changes":[9.026751E0,2.4666262E-1,3.7939065E0,0E0,0E0,0E0,0E0],"parents":[2147483647,0,0,1,1,2,2],"right_children":[2,4,6,-1,-1,-1,-1],"split_conditions":[2.951E-1,8.828E-1,2.45E2,5.7701897E-2,9.925077E-3,-5.1814895E-2,4.9290184E-2],"split_indices":[29,7,17,0,0,0,0],"split_type":[0,0,0,0,0,0,0],"sum_hessian":[4.3550865E1,1.7848125E1,2.570274E1,1.6198593E1,1.6495318E0,2.2103083E1,3.5996559E0],"tree_param":{"num_deleted":"0","num_feature":"31","num_nodes":"7","size_leaf_vector":"1"}},{"base_weights":[-6.050375E-3,-4.9701042E-2,2.858376E-1,-3.3514634E-1,5.047961E-1,-4.501496E-2,1.7684393E-2,5.8892854E-2,-3.2295328E-2],"categories":[],"categories_nodes":[],"categories_segments":[],"categories_sizes":[],"default_left":[0,0,0,0,0,0,0,0,0],"id":69,"left_children":[1,-1,3,5,7,-1,-1,-1,-1],"loss_changes":[5.7303476E0,0E0,3.5807753E0,5.001155E-1,1.5098228E0,0E0,0E0,0E0,0E0],"parents":[2147483647,0,0,2,2,3,3,4,4],"right_children":[2,-1,4,6,8,-1,-1,-1,-1],"split_conditions":[5.07E-1,-4.9701042E-2,2.951E-1,8.828E-1,2.6E2,-4.501496E-2,1.7684393E-2,5.8892854E-2,-3.2295328E-2],"split_indices":[7,0,29,7,0,0,0,0,0],"split_type":[0,0,0,0,0,0,0,0,0],"sum_hessian":[3.7995644E1,1.3904806E1,2.409084E1,6.1417375E0,1.79491E1,5.11385E0,1.0278878E0,1.6554972E1,1.3941286E0],"tree_param":{"num_deleted":"0","num_feature":"31","num_nodes":"9","size_leaf_vector":"1"}},{"base_weights":[-2.4960488E-3,-2.6875708E-1,3.786895E-1,1.2931482E-1,-3.5593265E-1,5.6632508E-2,-4.1100707E-2,-3.5583463E-2,4.91074E-2,-5.0989598E-2,7.899503E-2,-3.7871573E-2,3.9495188E-1,4.6269964E-2,1.1379492E-2],"categories":[],"categories_nodes":[],"categories_segments":[],"categories_sizes":[],"default_left":[0,0,0,0,0,0,0,0,0,0,0,0,0,0,0],"id":70,"left_children":[1,3,5,7,9,-1,-1,-1,-1,-1,11,-1,13,-1,-1],"loss_changes":[4.574961E0,9.6677864E-1,2.9799373E0,1.1400671E0,1.5156584E0,0E0,0E0,0E0,0E0,0E0,1.107841E0,0E0,3.1341434E-2,0E0,0E0],"parents":[2147483647,0,0,1,1,2,2,3,3,4,4,10,10,12,12],"right_children":[2,4,6,8,10,-1,-1,-1,-1,-1,12,-1,14,-1,-1],"split_conditions":[1E0,3.5E1,4.071E-1,6E0,2.6E2,5.6632508E-2,-4.1100707E-2,-3.5583463E-2,4.91074E-2,-5.0989598E-2,1E0,-3.7871573E-2,2.85E0,4.6269964E-2,1.1379492E-2],"split_indices":[28,0,7,4,0,0,0,0,0,0,24,0,19,0,0],"split_type":[0,0,0,0,0,0,0,0,0,0,0,0,0,0,0],"sum_hessian":[4.3073025E1,2.5532984E1,1.7540041E1,4.5002055E0,2.103278E1,1.4401124E1,3.1389167E0,1.9292696E0,2.5709357E0,1.5406534E1,5.626244E0,2.2165742E0,3.40967E0,2.227284E0,1.1823862E0],"tree_param":{"num_deleted":"0","num_feature":"31","num_nodes":"15","size_leaf_vector":"1"}},{"base_weights":[-4.1480013E-3,-4.942866E-2,4.7758678E-1,5.6300044E-1,-3.0606661E-2,8.554612E-3,5.9358668E-2],"categories":[],"categories_nodes":[],"categories_segments":[],"categories_sizes":[],"default_left":[0,0,0,0,0,0,0],"id":71,"left_children":[1,-1,3,5,-1,-1,-1],"loss_changes":[8.050096E0,0E0,1.3235018E0,1.8083954E-1,0E0,0E0,0E0],"parents":[2147483647,0,0,2,2,3,3],"right_children":[2,-1,4,6,-1,-1,-1],"split_conditions":[8.352E-1,-4.942866E-2,2.45E2,4E1,-3.0606661E-2,8.554612E-3,5.9358668E-2],"split_indices":[29,0,0,0,0,0,0],"split_type":[0,0,0,0,0,0,0],"sum_hessian":[3.209392E1,1.58952875E1,1.6198635E1,1.4860496E1,1.3381383E0,1.1232545E0,1.3737242E1],"tree_param":{"num_deleted":"0","num_feature":"31","num_nodes":"7","size_leaf_vector":"1"}},{"base_weights":[1.1819737E-2,5.264697E-1,-3.5728702E-1,5.624189E-2,5.8182217E-3,-5.1286537E-2,4.784205E-2],"categories":[],"categories_nodes":[],"categories_segments":[],"categories_sizes":[],"default_left":[0,0,0,0,0,0,0],"id":72,"left_children":[1,3,5,-1,-1,-1,-1],"loss_changes":[8.085133E0,2.6637793E-1,3.4704416E0,0E0,0E0,0E0,0E0],"parents":[2147483647,0,0,1,1,2,2],"right_children":[2,4,6,-1,-1,-1,-1],"split_conditions":[2.951E-1,2.85E2,2.45E2,5.624189E-2,5.8182217E-3,-5.1286537E-2,4.784205E-2],"split_indices":[29,0,17,0,0,0,0],"split_type":[0,0,0,0,0,0,0],"sum_hessian":[4.0571903E1,1.6767057E1,2.3804844E1,1.5384983E1,1.3820747E0,2.039445E1,3.4103954E0],"tree_param":{"num_deleted":"0","num_feature":"31","num_nodes":"7","size_leaf_vector":"1"}},{"base_weights":[-6.619829E-3,-4.9173024E-2,2.7808234E-1,-3.2230073E-1,4.9047977E-1,-4.4527765E-2,1.748605E-2,5.747382E-2,-3.152676E-2],"categories":[],"categories_nodes":[],"categories_segments":[],"categories_sizes":[],"default_left":[0,0,0,0,0,0,0,0,0],"id":73,"left_children":[1,-1,3,5,7,-1,-1,-1,-1],"loss_changes":[5.1678286E0,0E0,3.1668134E0,4.91723E-1,1.3913593E0,0E0,0E0,0E0,0E0],"parents":[2147483647,0,0,2,2,3,3,4,4],"right_children":[2,-1,4,6,8,-1,-1,-1,-1],"split_conditions":[5.07E-1,-4.9173024E-2,2.951E-1,2.5E1,2.6E2,-4.4527765E-2,1.748605E-2,5.747382E-2,-3.152676E-2],"split_indices":[7,0,29,17,0,0,0,0,0],"split_type":[0,0,0,0,0,0,0,0,0],"sum_hessian":[3.5427593E1,1.28333645E1,2.2594229E1,5.76915E0,1.6825079E1,4.708759E0,1.0603907E0,1.5491778E1,1.3333011E0],"tree_param":{"num_deleted":"0","num_feature":"31","num_nodes":"9","size_leaf_vector":"1"}},{"base_weights":[-2.4737727E-3,-2.6195312E-1,3.697985E-1,-4.8598073E-2,-9.1749094E-2,5.536309E-2,-4.009838E-2,2.3795964E-1,-4.6570525E-2,3.7823197E-2,4.862936E-2,4.754587E-2,-4.036934E-2],"categories":[],"categories_nodes":[],"categories_segments":[],"categories_sizes":[],"default_left":[0,0,0,0,0,0,0,0,0,0,0,0,0],"id":74,"left_children":[1,3,5,-1,7,-1,-1,9,-1,11,-1,-1,-1],"loss_changes":[4.074061E0,9.0285265E-1,2.6769497E0,0E0,2.0037427E0,0E0,0E0,4.200078E-1,0E0,1.3452398E0,0E0,0E0,0E0],"parents":[2147483647,0,0,1,1,2,2,4,4,7,7,9,9],"right_children":[2,4,6,-1,8,-1,-1,10,-1,12,-1,-1,-1],"split_conditions":[1E0,4.965E-1,4.071E-1,-4.8598073E-2,8.771E-1,5.536309E-2,-4.009838E-2,2.55E2,-4.6570525E-2,3.5E1,4.862936E-2,4.754587E-2,-4.036934E-2],"split_indices":[28,29,7,0,29,0,0,0,0,0,0,0,0],"split_type":[0,0,0,0,0,0,0,0,0,0,0,0,0],"sum_hessian":[4.0173035E1,2.384739E1,1.6325645E1,9.494786E0,1.4352602E1,1.3409254E1,2.916392E0,7.820826E0,6.5317764E0,4.9687424E0,2.8520837E0,2.4567308E0,2.5120113E0],"tree_param":{"num_deleted":"0","num_feature":"31","num_nodes":"13","size_leaf_vector":"1"}},{"base_weights":[-4.8014564E-3,-4.8979905E-2,4.6238592E-1,5.462008E-1,-2.9721547E-2,8.213997E-3,5.7770845E-2],"categories":[],"categories_nodes":[],"categories_segments":[],"categories_sizes":[],"default_left":[0,0,0,0,0,0,0],"id":75,"left_children":[1,-1,3,5,-1,-1,-1],"loss_changes":[7.228348E0,0E0,1.1971829E0,1.7174244E-1,0E0,0E0,0E0],"parents":[2147483647,0,0,2,2,3,3],"right_children":[2,-1,4,6,-1,-1,-1],"split_conditions":[8.352E-1,-4.8979905E-2,2.45E2,4E1,-2.9721547E-2,8.213997E-3,5.7770845E-2],"split_indices":[29,0,0,0,0,0,0],"split_type":[0,0,0,0,0,0,0],"sum_hessian":[2.9901775E1,1.46474905E1,1.5254285E1,1.3991403E1,1.2628824E0,1.1188831E0,1.28725195E1],"tree_param":{"num_deleted":"0","num_feature":"31","num_nodes":"7","size_leaf_vector":"1"}},{"base_weights":[1.2505842E-2,5.128511E-1,-3.514274E-1,5.5114765E-2,4.7516855E-3,-5.077228E-2,4.6441253E-2],"categories":[],"categories_nodes":[],"categories_segments":[],"categories_sizes":[],"default_left":[0,0,0,0,0,0,0],"id":76,"left_children":[1,3,5,-1,-1,-1,-1],"loss_changes":[7.2334023E0,2.7171707E-1,3.170759E0,0E0,0E0,0E0,0E0],"parents":[2147483647,0,0,1,1,2,2],"right_children":[2,4,6,-1,-1,-1,-1],"split_conditions":[2.951E-1,2.85E2,2.45E2,5.5114765E-2,4.7516855E-3,-5.077228E-2,4.6441253E-2],"split_indices":[29,0,17,0,0,0,0],"split_type":[0,0,0,0,0,0,0],"sum_hessian":[3.7734047E1,1.5716874E1,2.2017174E1,1.4351361E1,1.3655128E0,1.8794304E1,3.2228699E0],"tree_param":{"num_deleted":"0","num_feature":"31","num_nodes":"7","size_leaf_vector":"1"}},{"base_weights":[-6.898862E-3,-4.864937E-2,2.7124485E-1,-3.0936298E-1,4.780192E-1,-4.347497E-2,1.8465815E-2,5.61901E-2,-3.0626208E-2],"categories":[],"categories_nodes":[],"categories_segments":[],"categories_sizes":[],"default_left":[0,0,0,0,0,0,0,0,0],"id":77,"left_children":[1,-1,3,5,7,-1,-1,-1,-1],"loss_changes":[4.6676674E0,0E0,2.8086247E0,4.7840798E-1,1.2730641E0,0E0,0E0,0E0,0E0],"parents":[2147483647,0,0,2,2,3,3,4,4],"right_children":[2,-1,4,6,8,-1,-1,-1,-1],"split_conditions":[5.07E-1,-4.864937E-2,2.951E-1,8.828E-1,2.6E2,-4.347497E-2,1.8465815E-2,5.61901E-2,-3.0626208E-2],"split_indices":[7,0,29,7,0,0,0,0,0],"split_type":[0,0,0,0,0,0,0,0,0],"sum_hessian":[3.3001755E1,1.1839019E1,2.1162737E1,5.427253E0,1.5735484E1,4.4243045E0,1.0029483E0,1.4471274E1,1.2642097E0],"tree_param":{"num_deleted":"0","num_feature":"31","num_nodes":"9","size_leaf_vector":"1"}},{"base_weights":[-2.700208E-3,-2.5606003E-1,3.6147594E-1,-4.794215E-2,-8.754768E-2,5.419438E-2,-3.910047E-2,2.3295332E-1,-4.5810323E-2,3.7803713E-2,4.7005367E-2,4.608373E-2,-3.9439708E-2],"categories":[],"categories_nodes":[],"categories_segments":[],"categories_sizes":[],"default_left":[0,0,0,0,0,0,0,0,0,0,0,0,0],"id":78,"left_children":[1,3,5,-1,7,-1,-1,9,-1,11,-1,-1,-1],"loss_changes":[3.6363122E0,8.325776E-1,2.4080677E0,0E0,1.82487E0,0E0,0E0,3.718403E-1,0E0,1.2250559E0,0E0,0E0,0E0],"parents":[2147483647,0,0,1,1,2,2,4,4,7,7,9,9],"right_children":[2,4,6,-1,8,-1,-1,10,-1,12,-1,-1,-1],"split_conditions":[1E0,4.965E-1,4.071E-1,-4.794215E-2,8.771E-1,5.419438E-2,-3.910047E-2,2.55E2,-4.5810323E-2,3.5E1,4.7005367E-2,4.608373E-2,-3.9439708E-2],"split_indices":[28,29,7,0,29,0,0,0,0,0,0,0,0],"split_type":[0,0,0,0,0,0,0,0,0,0,0,0,0],"sum_hessian":[3.7407337E1,2.2235104E1,1.5172233E1,8.768078E0,1.3467025E1,1.2463013E1,2.7092204E0,7.420352E0,6.046673E0,4.70624E0,2.7141118E0,2.3448591E0,2.361381E0],"tree_param":{"num_deleted":"0","num_feature":"31","num_nodes":"13","size_leaf_vector":"1"}},{"base_weights":[-5.0670975E-3,-4.8530366E-2,4.485217E-1,5.310099E-1,-2.8857976E-2,7.936958E-3,5.6347072E-2],"categories":[],"categories_nodes":[],"categories_segments":[],"categories_sizes":[],"default_left":[0,0,0,0,0,0,0],"id":79,"left_children":[1,-1,3,5,-1,-1,-1],"loss_changes":[6.499246E0,0E0,1.0865324E0,1.6282654E-1,0E0,0E0,0E0],"parents":[2147483647,0,0,2,2,3,3],"right_children":[2,-1,4,6,-1,-1,-1],"split_conditions":[8.352E-1,-4.8530366E-2,2.45E2,4E1,-2.8857976E-2,7.936958E-3,5.6347072E-2],"split_indices":[29,0,0,0,0,0,0],"split_type":[0,0,0,0,0,0,0],"sum_hessian":[2.7837072E1,1.3487393E1,1.434968E1,1.3156903E1,1.1927769E0,1.113227E0,1.2043676E1],"tree_param":{"num_deleted":"0","num_feature":"31","num_nodes":"7","size_leaf_vector":"1"}},{"base_weights":[1.3193792E-2,5.000739E-1,-3.456864E-1,5.4089494E-2,3.753662E-3,-5.027398E-2,4.511512E-2],"categories":[],"categories_nodes":[],"categories_segments":[],"categories_sizes":[],"default_left":[0,0,0,0,0,0,0],"id":80,"left_children":[1,3,5,-1,-1,-1,-1],"loss_changes":[6.4750347E0,2.7638292E-1,2.899231E0,0E0,0E0,0E0,0E0],"parents":[2147483647,0,0,1,1,2,2],"right_children":[2,4,6,-1,-1,-1,-1],"split_conditions":[2.951E-1,2.85E2,2.45E2,5.4089494E-2,3.753662E-3,-5.027398E-2,4.511512E-2],"split_indices":[29,0,17,0,0,0,0],"split_type":[0,0,0,0,0,0,0],"sum_hessian":[3.5067684E1,1.4713275E1,2.035441E1,1.3364398E1,1.3488774E0,1.7311472E1,3.0429375E0],"tree_param":{"num_deleted":"0","num_feature":"31","num_nodes":"7","size_leaf_vector":"1"}},{"base_weights":[-7.1505005E-3,-4.8127897E-2,2.6488915E-1,-2.965615E-1,4.664309E-1,-4.3046102E-2,1.9156126E-2,5.501358E-2,-2.9745398E-2],"categories":[],"categories_nodes":[],"categories_segments":[],"categories_sizes":[],"default_left":[0,0,0,0,0,0,0,0,0],"id":81,"left_children":[1,-1,3,5,7,-1,-1,-1,-1],"loss_changes":[4.218531E0,0E0,2.4918737E0,4.8150182E-1,1.1671185E0,0E0,0E0,0E0,0E0],"parents":[2147483647,0,0,2,2,3,3,4,4],"right_children":[2,-1,4,6,8,-1,-1,-1,-1],"split_conditions":[5.07E-1,-4.8127897E-2,2.951E-1,2.5E1,2.6E2,-4.3046102E-2,1.9156126E-2,5.501358E-2,-2.9745398E-2],"split_indices":[7,0,29,17,0,0,0,0,0],"split_type":[0,0,0,0,0,0,0,0,0],"sum_hessian":[3.071802E1,1.0918826E1,1.9799192E1,5.105351E0,1.4693842E1,4.099049E0,1.0063021E0,1.3494916E1,1.1989261E0],"tree_param":{"num_deleted":"0","num_feature":"31","num_nodes":"9","size_leaf_vector":"1"}},{"base_weights":[-2.937858E-3,-2.503252E-1,3.536251E-1,1.3297339E-1,-3.381326E-1,5.3109523E-2,-3.8105786E-2,-3.2114778E-2,4.470826E-2,-4.9343843E-2,7.32989E-2,-3.5019975E-2,3.5889018E-1,4.1480985E-2,1.0163335E-2],"categories":[],"categories_nodes":[],"categories_segments":[],"categories_sizes":[],"default_left":[0,0,0,0,0,0,0,0,0,0,0,0,0,0,0],"id":82,"left_children":[1,3,5,7,9,-1,-1,-1,-1,-1,11,-1,13,-1,-1],"loss_changes":[3.2472014E0,7.7620256E-1,2.1688838E0,8.235997E-1,1.183728E0,0E0,0E0,0E0,0E0,0E0,8.2622904E-1,0E0,1.4710963E-2,0E0,0E0],"parents":[2147483647,0,0,1,1,2,2,3,3,4,4,10,10,12,12],"right_children":[2,4,6,8,10,-1,-1,-1,-1,-1,12,-1,14,-1,-1],"split_conditions":[1E0,3.5E1,4.071E-1,6E0,2.6E2,5.3109523E-2,-3.8105786E-2,-3.2114778E-2,4.470826E-2,-4.9343843E-2,1E0,-3.5019975E-2,2.85E0,4.1480985E-2,1.0163335E-2],"split_indices":[28,0,7,4,0,0,0,0,0,0,24,0,19,0,0],"split_type":[0,0,0,0,0,0,0,0,0,0,0,0,0,0,0],"sum_hessian":[3.480898E1,2.072659E1,1.4082389E1,3.7672668E0,1.6959324E1,1.156569E1,2.5166996E0,1.5311742E0,2.2360926E0,1.2167176E1,4.7921467E0,1.8389583E0,2.9531884E0,1.9227971E0,1.0303912E0],"tree_param":{"num_deleted":"0","num_feature":"31","num_nodes":"15","size_leaf_vector":"1"}},{"base_weights":[-5.3492556E-3,-4.8078626E-2,4.3552434E-1,5.1690584E-1,-2.80105E-2,7.6714098E-3,5.5042237E-2],"categories":[],"categories_nodes":[],"categories_segments":[],"categories_sizes":[],"default_left":[0,0,0,0,0,0,0],"id":83,"left_children":[1,-1,3,5,-1,-1,-1],"loss_changes":[5.8469048E0,0E0,9.8807216E-1,1.5477586E-1,0E0,0E0,0E0],"parents":[2147483647,0,0,2,2,3,3],"right_children":[2,-1,4,6,-1,-1,-1],"split_conditions":[8.352E-1,-4.8078626E-2,2.45E2,4E1,-2.80105E-2,7.6714098E-3,5.5042237E-2],"split_indices":[29,0,0,0,0,0,0],"split_type":[0,0,0,0,0,0,0],"sum_hessian":[2.589554E1,1.2415819E1,1.347972E1,1.2352664E1,1.1270567E0,1.1066914E0,1.1245973E1],"tree_param":{"num_deleted":"0","num_feature":"31","num_nodes":"7","size_leaf_vector":"1"}},{"base_weights":[1.4236067E-2,4.8814413E-1,-3.3990887E-1,5.3513646E-2,4.084688E-3,-4.979342E-2,4.3889225E-2],"categories":[],"categories_nodes":[],"categories_segments":[],"categories_sizes":[],"default_left":[0,0,0,0,0,0,0],"id":84,"left_children":[1,3,5,-1,-1,-1,-1],"loss_changes":[5.8073378E0,2.8894496E-1,2.658656E0,0E0,0E0,0E0,0E0],"parents":[2147483647,0,0,1,1,2,2],"right_children":[2,4,6,-1,-1,-1,-1],"split_conditions":[2.951E-1,8.828E-1,2.45E2,5.3513646E-2,4.084688E-3,-4.979342E-2,4.3889225E-2],"split_indices":[29,7,17,0,0,0,0],"split_type":[0,0,0,0,0,0,0],"sum_hessian":[3.2613426E1,1.3786412E1,1.8827013E1,1.2298024E1,1.4883884E0,1.595105E1,2.8759623E0],"tree_param":{"num_deleted":"0","num_feature":"31","num_nodes":"7","size_leaf_vector":"1"}},{"base_weights":[-7.6590627E-3,-4.76069E-2,2.5840497E-1,-2.8338224E-1,4.5476124E-1,-4.1597117E-2,1.581151E-2,5.392019E-2,-2.9028494E-2],"categories":[],"categories_nodes":[],"categories_segments":[],"categories_sizes":[],"default_left":[0,0,0,0,0,0,0,0,0],"id":85,"left_children":[1,-1,3,5,7,-1,-1,-1,-1],"loss_changes":[3.8103359E0,0E0,2.2051687E0,4.057529E-1,1.081912E0,0E0,0E0,0E0,0E0],"parents":[2147483647,0,0,2,2,3,3,4,4],"right_children":[2,-1,4,6,8,-1,-1,-1,-1],"split_conditions":[5.07E-1,-4.76069E-2,2.951E-1,2.65E2,2.6E2,-4.1597117E-2,1.581151E-2,5.392019E-2,-2.9028494E-2],"split_indices":[7,0,29,0,0,0,0,0,0],"split_type":[0,0,0,0,0,0,0,0,0],"sum_hessian":[2.8586817E1,1.0069681E1,1.8517134E1,4.8079123E0,1.3709222E1,3.7419581E0,1.0659542E0,1.25618E1,1.1474223E0],"tree_param":{"num_deleted":"0","num_feature":"31","num_nodes":"9","size_leaf_vector":"1"}},{"base_weights":[-2.9226223E-3,-2.4396402E-1,3.4616235E-1,-4.669769E-2,-7.7145755E-2,5.2094128E-2,-3.7113786E-2,2.2721522E-1,-4.4277456E-2,4.01143E-2,4.424173E-2,4.3408647E-2,-3.747892E-2],"categories":[],"categories_nodes":[],"categories_segments":[],"categories_sizes":[],"default_left":[0,0,0,0,0,0,0,0,0,0,0,0,0],"id":86,"left_children":[1,3,5,-1,7,-1,-1,9,-1,11,-1,-1,-1],"loss_changes":[2.8951318E0,7.209008E-1,1.9556785E0,0E0,1.5291877E0,0E0,0E0,2.9094118E-1,0E0,1.0128038E0,0E0,0E0,0E0],"parents":[2147483647,0,0,1,1,2,2,4,4,7,7,9,9],"right_children":[2,4,6,-1,8,-1,-1,10,-1,12,-1,-1,-1],"split_conditions":[1E0,4.965E-1,4.071E-1,-4.669769E-2,8.771E-1,5.2094128E-2,-3.7113786E-2,2.55E2,-4.4277456E-2,3.5E1,4.424173E-2,4.3408647E-2,-3.747892E-2],"split_indices":[28,29,7,0,29,0,0,0,0,0,0,0,0],"split_type":[0,0,0,0,0,0,0,0,0,0,0,0,0],"sum_hessian":[3.2403248E1,1.9346039E1,1.3057209E1,7.5086713E0,1.1837368E1,1.0719113E1,2.3380952E0,6.6665144E0,5.1708536E0,4.2007246E0,2.4657893E0,2.130998E0,2.069727E0],"tree_param":{"num_deleted":"0","num_feature":"31","num_nodes":"13","size_leaf_vector":"1"}},{"base_weights":[-6.1541833E-3,-4.7625866E-2,4.229234E-1,5.033972E-1,-2.717495E-2,7.359343E-3,5.381738E-2],"categories":[],"categories_nodes":[],"categories_segments":[],"categories_sizes":[],"default_left":[0,0,0,0,0,0,0],"id":87,"left_children":[1,-1,3,5,-1,-1,-1],"loss_changes":[5.2583094E0,0E0,8.9912224E-1,1.4829993E-1,0E0,0E0,0E0],"parents":[2147483647,0,0,2,2,3,3],"right_children":[2,-1,4,6,-1,-1,-1],"split_conditions":[8.352E-1,-4.7625866E-2,2.45E2,4E1,-2.717495E-2,7.359343E-3,5.381738E-2],"split_indices":[29,0,0,0,0,0,0],"split_type":[0,0,0,0,0,0,0],"sum_hessian":[2.4069933E1,1.1433376E1,1.2636556E1,1.157142E1,1.0651361E0,1.0994525E0,1.0471968E1],"tree_param":{"num_deleted":"0","num_feature":"31","num_nodes":"7","size_leaf_vector":"1"}},{"base_weights":[1.4998697E-2,4.762474E-1,-3.3430627E-1,5.260674E-2,3.0808062E-3,-4.9315233E-2,4.2682E-2],"categories":[],"categories_nodes":[],"categories_segments":[],"categories_sizes":[],"default_left":[0,0,0,0,0,0,0],"id":88,"left_children":[1,3,5,-1,-1,-1,-1],"loss_changes":[5.20149E0,2.922423E-1,2.4346695E0,0E0,0E0,0E0,0E0],"parents":[2147483647,0,0,1,1,2,2],"right_children":[2,4,6,-1,-1,-1,-1],"split_conditions":[2.951E-1,8.828E-1,2.45E2,5.260674E-2,3.0808062E-3,-4.9315233E-2,4.2682E-2],"split_indices":[29,7,17,0,0,0,0],"split_type":[0,0,0,0,0,0,0],"sum_hessian":[3.0295855E1,1.2899269E1,1.7396585E1,1.1438884E1,1.4603854E0,1.4684107E1,2.7124784E0],"tree_param":{"num_deleted":"0","num_feature":"31","num_nodes":"7","size_leaf_vector":"1"}},{"base_weights":[-7.949045E-3,-4.7081154E-2,2.5249305E-1,-2.70736E-1,4.445182E-1,-4.0807635E-2,1.5949404E-2,5.2909393E-2,-2.8184867E-2],"categories":[],"categories_nodes":[],"categories_segments":[],"categories_sizes":[],"default_left":[0,0,0,0,0,0,0,0,0],"id":89,"left_children":[1,-1,3,5,7,-1,-1,-1,-1],"loss_changes":[3.4453862E0,0E0,1.9599622E0,3.9225927E-1,9.95208E-1,0E0,0E0,0E0,0E0],"parents":[2147483647,0,0,2,2,3,3,4,4],"right_children":[2,-1,4,6,8,-1,-1,-1,-1],"split_conditions":[5.07E-1,-4.7081154E-2,2.951E-1,2.65E2,2.6E2,-4.0807635E-2,1.5949404E-2,5.2909393E-2,-2.8184867E-2],"split_indices":[7,0,29,0,0,0,0,0,0],"split_type":[0,0,0,0,0,0,0,0,0],"sum_hessian":[2.6594698E1,9.285175E0,1.7309523E1,4.5370617E0,1.2772461E1,3.4782188E0,1.058843E0,1.1683644E1,1.0888158E0],"tree_param":{"num_deleted":"0","num_feature":"31","num_nodes":"9","size_leaf_vector":"1"}},{"base_weights":[-3.2066419E-3,-2.3849748E-1,3.390141E-1,1.3402103E-1,-3.2661936E-1,5.1135786E-2,-3.6124464E-2,-2.9944116E-2,4.2175606E-2,-4.828179E-2,6.9534644E-2,-3.317271E-2,3.3671807E-2],"categories":[],"categories_nodes":[],"categories_segments":[],"categories_sizes":[],"default_left":[0,0,0,0,0,0,0,0,0,0,0,0,0],"id":90,"left_children":[1,3,5,7,9,-1,-1,-1,-1,-1,11,-1,-1],"loss_changes":[2.5875902E0,6.686287E-1,1.7652854E0,6.688904E-1,1.0040957E0,0E0,0E0,0E0,0E0,0E0,6.809261E-1,0E0,0E0],"parents":[2147483647,0,0,1,1,2,2,3,3,4,4,10,10],"right_children":[2,4,6,8,10,-1,-1,-1,-1,-1,12,-1,-1],"split_conditions":[1E0,3.5E1,4.071E-1,6E0,2.6E2,5.1135786E-2,-3.6124464E-2,-2.9944116E-2,4.2175606E-2,-4.828179E-2,1E0,-3.317271E-2,3.3671807E-2],"split_indices":[28,0,7,4,0,0,0,0,0,0,24,0,0],"split_type":[0,0,0,0,0,0,0,0,0,0,0,0,0],"sum_hessian":[3.0131306E1,1.8034758E1,1.2096549E1,3.350461E0,1.4684296E1,9.923894E0,2.1726546E0,1.3204972E0,2.0299637E0,1.0374858E1,4.309438E0,1.6259626E0,2.6834757E0],"tree_param":{"num_deleted":"0","num_feature":"31","num_nodes":"13","size_leaf_vector":"1"}},{"base_weights":[-6.4282413E-3,-4.7159906E-2,4.1125596E-1,4.909579E-1,-2.6362836E-2,7.115052E-3,5.2696165E-2],"categories":[],"categories_nodes":[],"categories_segments":[],"categories_sizes":[],"default_left":[0,0,0,0,0,0,0],"id":91,"left_children":[1,-1,3,5,-1,-1,-1],"loss_changes":[4.7343783E0,0E0,8.2046795E-1,1.4145613E-1,0E0,0E0,0E0],"parents":[2147483647,0,0,2,2,3,3],"right_children":[2,-1,4,6,-1,-1,-1],"split_conditions":[8.352E-1,-4.7159906E-2,2.45E2,4E1,-2.6362836E-2,7.115052E-3,5.2696165E-2],"split_indices":[29,0,0,0,0,0,0],"split_type":[0,0,0,0,0,0,0],"sum_hessian":[2.2368805E1,1.0521752E1,1.1847054E1,1.0839473E1,1.0075808E0,1.0912764E0,9.748196E0],"tree_param":{"num_deleted":"0","num_feature":"31","num_nodes":"7","size_leaf_vector":"1"}},{"base_weights":[1.6292794E-2,4.652819E-1,-3.2857415E-1,5.1515736E-2,4.0582844E-4,-4.8846763E-2,4.1559115E-2],"categories":[],"categories_nodes":[],"categories_segments":[],"categories_sizes":[],"default_left":[0,0,0,0,0,0,0],"id":92,"left_children":[1,3,5,-1,-1,-1,-1],"loss_changes":[4.6702437E0,2.9897547E-1,2.2360656E0,0E0,0E0,0E0,0E0],"parents":[2147483647,0,0,1,1,2,2],"right_children":[2,4,6,-1,-1,-1,-1],"split_conditions":[2.951E-1,2.85E2,2.45E2,5.1515736E-2,4.0582844E-4,-4.8846763E-2,4.1559115E-2],"split_indices":[29,0,17,0,0,0,0],"split_type":[0,0,0,0,0,0,0],"sum_hessian":[2.817412E1,1.2087717E1,1.6086403E1,1.0802616E1,1.2851009E0,1.3524165E1,2.5622373E0],"tree_param":{"num_deleted":"0","num_feature":"31","num_nodes":"7","size_leaf_vector":"1"}},{"base_weights":[-8.464801E-3,-4.6550997E-2,2.4649337E-1,4.5323512E-1,-2.1624741E-1,5.0733548E-2,-5.024782E-3,-4.1080218E-2,2.2863317E-2],"categories":[],"categories_nodes":[],"categories_segments":[],"categories_sizes":[],"default_left":[0,0,0,0,0,0,0,0,0],"id":93,"left_children":[1,-1,3,5,7,-1,-1,-1,-1],"loss_changes":[3.1141932E0,0E0,1.7412839E0,3.576815E-1,6.1163056E-1,0E0,0E0,0E0,0E0],"parents":[2147483647,0,0,2,2,3,3,4,4],"right_children":[2,-1,4,6,8,-1,-1,-1,-1],"split_conditions":[5.07E-1,-4.6550997E-2,2.79E0,2.5E2,8.828E-1,5.0733548E-2,-5.024782E-3,-4.1080218E-2,2.2863317E-2],"split_indices":[7,0,19,0,7,0,0,0,0],"split_type":[0,0,0,0,0,0,0,0,0],"sum_hessian":[2.4740282E1,8.563422E0,1.6176859E1,1.119551E1,4.9813495E0,1.0102339E1,1.0931706E0,3.5190172E0,1.4623322E0],"tree_param":{"num_deleted":"0","num_feature":"31","num_nodes":"9","size_leaf_vector":"1"}},{"base_weights":[-3.4402986E-3,-2.3268035E-1,3.3212128E-1,-4.5462113E-2,-6.738361E-2,5.0223928E-2,-3.5138126E-2,2.2188492E-1,-4.2728335E-2,4.241711E-2,4.170708E-2,4.1002095E-2,-3.556178E-2],"categories":[],"categories_nodes":[],"categories_segments":[],"categories_sizes":[],"default_left":[0,0,0,0,0,0,0,0,0,0,0,0,0],"id":94,"left_children":[1,3,5,-1,7,-1,-1,9,-1,11,-1,-1,-1],"loss_changes":[2.311301E0,6.239369E-1,1.594977E0,0E0,1.2816589E0,0E0,0E0,2.2676307E-1,0E0,8.406592E-1,0E0,0E0,0E0],"parents":[2147483647,0,0,1,1,2,2,4,4,7,7,9,9],"right_children":[2,4,6,-1,8,-1,-1,10,-1,12,-1,-1,-1],"split_conditions":[1E0,4.965E-1,4.071E-1,-4.5462113E-2,8.771E-1,5.0223928E-2,-3.5138126E-2,2.55E2,-4.2728335E-2,3.5E1,4.170708E-2,4.1002095E-2,-3.556178E-2],"split_indices":[28,29,7,0,29,0,0,0,0,0,0,0,0],"split_type":[0,0,0,0,0,0,0,0,0,0,0,0,0],"sum_hessian":[2.8041891E1,1.6842484E1,1.1199407E1,6.4422565E0,1.0400228E1,9.179824E0,2.019583E0,5.9785028E0,4.4217253E0,3.7488546E0,2.229648E0,1.9332733E0,1.8155812E0],"tree_param":{"num_deleted":"0","num_feature":"31","num_nodes":"13","size_leaf_vector":"1"}},{"base_weights":[-7.2343512E-3,-4.668761E-2,3.997244E-1,4.769603E-1,-1.7260203E-2,6.8171755E-3,5.150224E-2],"categories":[],"categories_nodes":[],"categories_segments":[],"categories_sizes":[],"default_left":[0,0,0,0,0,0,0],"id":95,"left_children":[1,-1,3,5,-1,-1,-1],"loss_changes":[4.2597084E0,0E0,6.166645E-1,1.3474202E-1,0E0,0E0,0E0],"parents":[2147483647,0,0,2,2,3,3],"right_children":[2,-1,4,6,-1,-1,-1],"split_conditions":[8.352E-1,-4.668761E-2,2.4E2,4E1,-1.7260203E-2,6.8171755E-3,5.150224E-2],"split_indices":[29,0,0,0,0,0,0],"split_type":[0,0,0,0,0,0,0],"sum_hessian":[2.077478E1,9.686771E0,1.1088008E1,9.9164095E0,1.1715981E0,1.0824053E0,8.834004E0],"tree_param":{"num_deleted":"0","num_feature":"31","num_nodes":"7","size_leaf_vector":"1"}},{"base_weights":[1.6889317E-2,4.5423174E-1,-3.2294485E-1,5.0712258E-2,-3.2523222E-4,-4.838341E-2,4.0482834E-2],"categories":[],"categories_nodes":[],"categories_segments":[],"categories_sizes":[],"default_left":[0,0,0,0,0,0,0],"id":96,"left_children":[1,3,5,-1,-1,-1,-1],"loss_changes":[4.1885805E0,2.9944372E-1,2.0562344E0,0E0,0E0,0E0,0E0],"parents":[2147483647,0,0,1,1,2,2],"right_children":[2,4,6,-1,-1,-1,-1],"split_conditions":[2.951E-1,2.85E2,2.45E2,5.0712258E-2,-3.2523222E-4,-4.838341E-2,4.0482834E-2],"split_indices":[29,0,17,0,0,0,0],"split_type":[0,0,0,0,0,0,0],"sum_hessian":[2.6195417E1,1.1307212E1,1.48882065E1,1.0038171E1,1.2690406E0,1.2467249E1,2.420957E0],"tree_param":{"num_deleted":"0","num_feature":"31","num_nodes":"7","size_leaf_vector":"1"}},{"base_weights":[-8.263384E-3,-4.6015184E-2,2.4104653E-1,4.4285995E-1,-2.0577735E-1,4.977719E-2,-4.9279192E-3,-4.030591E-2,2.2459224E-2],"categories":[],"categories_nodes":[],"categories_segments":[],"categories_sizes":[],"default_left":[0,0,0,0,0,0,0,0,0],"id":97,"left_children":[1,-1,3,5,7,-1,-1,-1,-1],"loss_changes":[2.8228912E0,0E0,1.5492218E0,3.341179E-1,5.7563704E-1,0E0,0E0,0E0,0E0],"parents":[2147483647,0,0,2,2,3,3,4,4],"right_children":[2,-1,4,6,8,-1,-1,-1,-1],"split_conditions":[5.07E-1,-4.6015184E-2,2.79E0,2.5E2,8.828E-1,4.977719E-2,-4.9279192E-3,-4.030591E-2,2.2459224E-2],"split_indices":[7,0,19,0,7,0,0,0,0],"split_type":[0,0,0,0,0,0,0,0,0],"sum_hessian":[2.3072132E1,7.9025702E0,1.5169562E1,1.04559E1,4.7136626E0,9.39606E0,1.0598397E0,3.275589E0,1.4380738E0],"tree_param":{"num_deleted":"0","num_feature":"31","num_nodes":"9","size_leaf_vector":"1"}},{"base_weights":[-3.9007561E-3,-2.271556E-1,3.251235E-1,1.3499887E-1,-3.154656E-1,4.934932E-2,-3.418429E-2,-2.7828127E-2,3.9881624E-2,-4.72408E-2,6.5973684E-2,-3.1382892E-2,3.1581696E-2],"categories":[],"categories_nodes":[],"categories_segments":[],"categories_sizes":[],"default_left":[0,0,0,0,0,0,0,0,0,0,0,0,0],"id":98,"left_children":[1,3,5,7,9,-1,-1,-1,-1,-1,11,-1,-1],"loss_changes":[2.0648274E0,5.7784307E-1,1.4452872E0,5.4506785E-1,8.545902E-1,0E0,0E0,0E0,0E0,0E0,5.628568E-1,0E0,0E0],"parents":[2147483647,0,0,1,1,2,2,3,3,4,4,10,10],"right_children":[2,4,6,8,10,-1,-1,-1,-1,-1,12,-1,-1],"split_conditions":[1E0,3.5E1,4.071E-1,6E0,2.6E2,4.934932E-2,-3.418429E-2,-2.7828127E-2,3.9881624E-2,-4.72408E-2,1E0,-3.1382892E-2,3.1581696E-2],"split_indices":[28,0,7,4,0,0,0,0,0,0,24,0,0],"split_type":[0,0,0,0,0,0,0,0,0,0,0,0,0],"sum_hessian":[2.6104212E1,1.5736223E1,1.0367989E1,2.981316E0,1.2754908E1,8.485893E0,1.8820952E0,1.1402478E0,1.8410683E0,8.867786E0,3.8871207E0,1.4407864E0,2.4463344E0],"tree_param":{"num_deleted":"0","num_feature":"31","num_nodes":"13","size_leaf_vector":"1"}},{"base_weights":[-7.6076426E-3,-4.621054E-2,3.886834E-1,4.6561006E-1,-1.6676111E-2,6.590817E-3,5.0502576E-2],"categories":[],"categories_nodes":[],"categories_segments":[],"categories_sizes":[],"default_left":[0,0,0,0,0,0,0],"id":99,"left_children":[1,-1,3,5,-1,-1,-1],"loss_changes":[3.8413713E0,0E0,5.6491053E-1,1.286745E-1,0E0,0E0,0E0],"parents":[2147483647,0,0,2,2,3,3],"right_children":[2,-1,4,6,-1,-1,-1],"split_conditions":[8.352E-1,-4.621054E-2,2.4E2,4E1,-1.6676111E-2,6.590817E-3,5.0502576E-2],"split_indices":[29,0,0,0,0,0,0],"split_type":[0,0,0,0,0,0,0],"sum_hessian":[1.9330297E1,8.926552E0,1.0403747E1,9.280212E0,1.1235347E0,1.0728557E0,8.207356E0],"tree_param":{"num_deleted":"0","num_feature":"31","num_nodes":"7","size_leaf_vector":"1"}},{"base_weights":[1.804026E-2,4.4399506E-1,-3.1714067E-1,4.998481E-2,-9.096853E-4,-4.792471E-2,3.9478894E-2],"categories":[],"categories_nodes":[],"categories_segments":[],"categories_sizes":[],"default_left":[0,0,0,0,0,0,0],"id":100,"left_children":[1,3,5,-1,-1,-1,-1],"loss_changes":[3.7661757E0,2.9807377E-1,1.8965375E0,0E0,0E0,0E0,0E0],"parents":[2147483647,0,0,1,1,2,2],"right_children":[2,4,6,-1,-1,-1,-1],"split_conditions":[2.951E-1,2.85E2,2.45E2,4.998481E-2,-9.096853E-4,-4.792471E-2,3.9478894E-2],"split_indices":[29,0,17,0,0,0,0],"split_type":[0,0,0,0,0,0,0],"sum_hessian":[2.4392715E1,1.0598845E1,1.3793872E1,9.34383E0,1.2550144E0,1.1501756E1,2.2921166E0],"tree_param":{"num_deleted":"0","num_feature":"31","num_nodes":"7","size_leaf_vector":"1"}},{"base_weights":[-8.31544E-3,-4.5471594E-2,2.3540686E-1,4.323331E-1,-1.9542955E-1,4.885335E-2,-4.988384E-3,-3.9531033E-2,2.2106303E-2],"categories":[],"categories_nodes":[],"categories_segments":[],"categories_sizes":[],"default_left":[0,0,0,0,0,0,0,0,0],"id":101,"left_children":[1,-1,3,5,7,-1,-1,-1,-1],"loss_changes":[2.5576751E0,0E0,1.3765466E0,3.160529E-1,5.4241747E-1,0E0,0E0,0E0,0E0],"parents":[2147483647,0,0,2,2,3,3,4,4],"right_children":[2,-1,4,6,8,-1,-1,-1,-1],"split_conditions":[5.07E-1,-4.5471594E-2,2.79E0,2.5E2,8.828E-1,4.885335E-2,-4.988384E-3,-3.9531033E-2,2.2106303E-2],"split_indices":[7,0,19,0,7,0,0,0,0],"split_type":[0,0,0,0,0,0,0,0,0],"sum_hessian":[2.1524656E1,7.295869E0,1.4228788E1,9.762899E0,4.4658895E0,8.732109E0,1.0307899E0,3.0520334E0,1.4138559E0],"tree_param":{"num_deleted":"0","num_feature":"31","num_nodes":"9","size_leaf_vector":"1"}},{"base_weights":[-4.272373E-3,-2.2121778E-1,3.182787E-1,-4.422494E-2,-5.749458E-2,4.8504002E-2,-3.323659E-2,2.1702373E-1,-4.1173354E-2,4.2810187E-2,3.9603937E-2,3.8809445E-2,-3.380548E-2],"categories":[],"categories_nodes":[],"categories_segments":[],"categories_sizes":[],"default_left":[0,0,0,0,0,0,0,0,0,0,0,0,0],"id":102,"left_children":[1,3,5,-1,7,-1,-1,9,-1,11,-1,-1,-1],"loss_changes":[1.8428521E0,5.439441E-1,1.3108593E0,0E0,1.080092E0,0E0,0E0,1.8247753E-1,0E0,7.0483285E-1,0E0,0E0,0E0],"parents":[2147483647,0,0,1,1,2,2,4,4,7,7,9,9],"right_children":[2,4,6,-1,8,-1,-1,10,-1,12,-1,-1,-1],"split_conditions":[1E0,4.965E-1,4.071E-1,-4.422494E-2,8.771E-1,4.8504002E-2,-3.323659E-2,2.55E2,-4.1173354E-2,3.5E1,3.9603937E-2,3.8809445E-2,-3.380548E-2],"split_indices":[28,29,7,0,29,0,0,0,0,0,0,0,0],"split_type":[0,0,0,0,0,0,0,0,0,0,0,0,0],"sum_hessian":[2.432931E1,1.4733698E1,9.595612E0,5.545667E0,9.188031E0,7.8405814E0,1.7550303E0,5.3947268E0,3.7933042E0,3.3620276E0,2.032699E0,1.7534263E0,1.6086013E0],"tree_param":{"num_deleted":"0","num_feature":"31","num_nodes":"13","size_leaf_vector":"1"}},{"base_weights":[-8.565717E-3,-4.5724522E-2,3.776038E-1,4.543092E-1,-1.6120613E-2,6.304598E-3,4.952837E-2],"categories":[],"categories_nodes":[],"categories_segments":[],"categories_sizes":[],"default_left":[0,0,0,0,0,0,0],"id":103,"left_children":[1,-1,3,5,-1,-1,-1],"loss_changes":[3.4612176E0,0E0,5.1745474E-1,1.2381208E-1,0E0,0E0,0E0],"parents":[2147483647,0,0,2,2,3,3],"right_children":[2,-1,4,6,-1,-1,-1],"split_conditions":[8.352E-1,-4.5724522E-2,2.4E2,4E1,-1.6120613E-2,6.304598E-3,4.952837E-2],"split_indices":[29,0,0,0,0,0,0],"split_type":[0,0,0,0,0,0,0],"sum_hessian":[1.7979797E1,8.231637E0,9.74816E0,8.670631E0,1.0775294E0,1.0625993E0,7.6080317E0],"tree_param":{"num_deleted":"0","num_feature":"31","num_nodes":"7","size_leaf_vector":"1"}},{"base_weights":[1.8661037E-2,4.3334752E-1,-3.1148386E-1,4.9978808E-2,3.839373E-4,-4.7458474E-2,3.8473397E-2],"categories":[],"categories_nodes":[],"categories_segments":[],"categories_sizes":[],"default_left":[0,0,0,0,0,0,0],"id":104,"left_children":[1,3,5,-1,-1,-1,-1],"loss_changes":[3.3789809E0,3.0972958E-1,1.7466823E0,0E0,0E0,0E0,0E0],"parents":[2147483647,0,0,1,1,2,2],"right_children":[2,4,6,-1,-1,-1,-1],"split_conditions":[2.951E-1,2.5E1,2.45E2,4.9978808E-2,3.839373E-4,-4.7458474E-2,3.8473397E-2],"split_indices":[29,17,17,0,0,0,0],"split_type":[0,0,0,0,0,0,0],"sum_hessian":[2.2694984E1,9.920944E0,1.277404E1,8.450161E0,1.4707832E0,1.0607412E1,2.1666276E0],"tree_param":{"num_deleted":"0","num_feature":"31","num_nodes":"7","size_leaf_vector":"1"}},{"base_weights":[-8.085965E-3,-4.4915833E-2,2.3027217E-1,4.226075E-1,-1.8526402E-1,4.78373E-2,-3.3096466E-4,-3.8750287E-2,2.1746047E-2],"categories":[],"categories_nodes":[],"categories_segments":[],"categories_sizes":[],"default_left":[0,0,0,0,0,0,0,0,0],"id":105,"left_children":[1,-1,3,5,7,-1,-1,-1,-1],"loss_changes":[2.3207169E0,0E0,1.2253754E0,2.4185312E-1,5.107577E-1,0E0,0E0,0E0,0E0],"parents":[2147483647,0,0,2,2,3,3,4,4],"right_children":[2,-1,4,6,8,-1,-1,-1,-1],"split_conditions":[5.07E-1,-4.4915833E-2,2.79E0,2.45E2,8.828E-1,4.78373E-2,-3.3096466E-4,-3.8750287E-2,2.1746047E-2],"split_indices":[7,0,19,0,7,0,0,0,0],"split_type":[0,0,0,0,0,0,0,0,0],"sum_hessian":[2.009028E1,6.7378216E0,1.3352458E1,9.116002E0,4.236456E0,7.9517207E0,1.1642814E0,2.8453727E0,1.391083E0],"tree_param":{"num_deleted":"0","num_feature":"31","num_nodes":"9","size_leaf_vector":"1"}},{"base_weights":[-4.7600055E-3,-2.1584564E-1,3.1154814E-1,-4.3555807E-2,-5.3844653E-2,4.7681097E-2,-3.229637E-2,2.1314546E-1,-4.039644E-2,4.1728612E-2,3.8550783E-2,3.7780944E-2,-3.3035006E-2],"categories":[],"categories_nodes":[],"categories_segments":[],"categories_sizes":[],"default_left":[0,0,0,0,0,0,0,0,0,0,0,0,0],"id":106,"left_children":[1,3,5,-1,7,-1,-1,9,-1,11,-1,-1,-1],"loss_changes":[1.6470858E0,5.026903E-1,1.1899848E0,0E0,9.8812157E-1,0E0,0E0,1.6500765E-1,0E0,6.493188E-1,0E0,0E0,0E0],"parents":[2147483647,0,0,1,1,2,2,4,4,7,7,9,9],"right_children":[2,4,6,-1,8,-1,-1,10,-1,12,-1,-1,-1],"split_conditions":[1E0,4.965E-1,4.071E-1,-4.3555807E-2,8.771E-1,4.7681097E-2,-3.229637E-2,2.55E2,-4.039644E-2,3.5E1,3.8550783E-2,3.7780944E-2,-3.3035006E-2],"split_indices":[28,29,7,0,29,0,0,0,0,0,0,0,0],"split_type":[0,0,0,0,0,0,0,0,0,0,0,0,0],"sum_hessian":[2.2661589E1,1.3781937E1,8.879652E0,5.1324635E0,8.649473E0,7.241972E0,1.6376808E0,5.129274E0,3.5201988E0,3.194448E0,1.934826E0,1.6703231E0,1.5241249E0],"tree_param":{"num_deleted":"0","num_feature":"31","num_nodes":"13","size_leaf_vector":"1"}},{"base_weights":[-8.964828E-3,-4.522301E-2,3.672453E-1,4.437276E-1,-1.5578906E-2,6.0933116E-3,4.8612837E-2],"categories":[],"categories_nodes":[],"categories_segments":[],"categories_sizes":[],"default_left":[0,0,0,0,0,0,0],"id":107,"left_children":[1,-1,3,5,-1,-1,-1],"loss_changes":[3.1239898E0,0E0,4.7500813E-1,1.18269205E-1,0E0,0E0,0E0],"parents":[2147483647,0,0,2,2,3,3],"right_children":[2,-1,4,6,-1,-1,-1],"split_conditions":[8.352E-1,-4.522301E-2,2.4E2,4E1,-1.5578906E-2,6.0933116E-3,4.8612837E-2],"split_indices":[29,0,0,0,0,0,0],"split_type":[0,0,0,0,0,0,0],"sum_hessian":[1.6737438E1,7.591166E0,9.146272E0,8.111736E0,1.0345355E0,1.051935E0,7.059801E0],"tree_param":{"num_deleted":"0","num_feature":"31","num_nodes":"7","size_leaf_vector":"1"}},{"base_weights":[1.9272428E-2,4.2239758E-1,-3.0583155E-1,4.8567552E-2,-3.0322212E-3,-4.6988614E-2,3.7499234E-2],"categories":[],"categories_nodes":[],"categories_segments":[],"categories_sizes":[],"default_left":[0,0,0,0,0,0,0],"id":108,"left_children":[1,3,5,-1,-1,-1,-1],"loss_changes":[3.0310202E0,3.0992758E-1,1.609997E0,0E0,0E0,0E0,0E0],"parents":[2147483647,0,0,1,1,2,2],"right_children":[2,4,6,-1,-1,-1,-1],"split_conditions":[2.951E-1,2.85E2,2.45E2,4.8567552E-2,-3.0322212E-3,-4.6988614E-2,3.7499234E-2],"split_indices":[29,0,17,0,0,0,0],"split_type":[0,0,0,0,0,0,0],"sum_hessian":[2.1141699E1,9.304705E0,1.1836994E1,8.09978E0,1.204924E0,9.788208E0,2.0487862E0],"tree_param":{"num_deleted":"0","num_feature":"31","num_nodes":"7","size_leaf_vector":"1"}},{"base_weights":[-7.646167E-3,-4.4347726E-2,2.2538975E-1,4.1299623E-1,-1.749595E-1,4.696982E-2,-4.3372932E-4,-3.7929345E-2,2.1431694E-2],"categories":[],"categories_nodes":[],"categories_segments":[],"categories_sizes":[],"default_left":[0,0,0,0,0,0,0,0,0],"id":109,"left_children":[1,-1,3,5,7,-1,-1,-1,-1],"loss_changes":[2.1079826E0,0E0,1.0896518E0,2.2734094E-1,4.8096043E-1,0E0,0E0,0E0,0E0],"parents":[2147483647,0,0,2,2,3,3,4,4],"right_children":[2,-1,4,6,8,-1,-1,-1,-1],"split_conditions":[5.07E-1,-4.4347726E-2,2.79E0,2.45E2,8.828E-1,4.696982E-2,-4.3372932E-4,-3.7929345E-2,2.1431694E-2],"split_indices":[7,0,19,0,7,0,0,0,0],"split_type":[0,0,0,0,0,0,0,0,0],"sum_hessian":[1.8770996E1,6.225266E0,1.254573E1,8.521095E0,4.024635E0,7.3913746E0,1.1297206E0,2.656083E0,1.3685517E0],"tree_param":{"num_deleted":"0","num_feature":"31","num_nodes":"9","size_leaf_vector":"1"}},{"base_weights":[-5.353626E-3,-2.1055669E-1,3.0488673E-1,1.385351E-1,-2.9911605E-1,4.6874758E-2,-3.136651E-2,-1.7909687E-2,3.5457693E-2,-4.5708664E-2,6.435261E-2,-2.8829772E-2,2.9298324E-2],"categories":[],"categories_nodes":[],"categories_segments":[],"categories_sizes":[],"default_left":[0,0,0,0,0,0,0,0,0,0,0,0,0],"id":110,"left_children":[1,3,5,7,9,-1,-1,-1,-1,-1,11,-1,-1],"loss_changes":[1.4728477E0,4.7145504E-1,1.0812776E0,3.0354714E-1,6.8462884E-1,0E0,0E0,0E0,0E0,0E0,4.3387753E-1,0E0,0E0],"parents":[2147483647,0,0,1,1,2,2,3,3,4,4,10,10],"right_children":[2,4,6,8,10,-1,-1,-1,-1,-1,12,-1,-1],"split_conditions":[1E0,3.5E1,4.071E-1,2.688E-1,